2957 100
i 0.70562017 0.2714487 -0.12504749 -0.51743782 -0.76454151 0.082951881 0.059958551 -0.75449234 0.45703369 0.80495465 -0.72820657 0.34068552 -0.55640239 0.052886058 0.25479144 0.98775119 0.048909198 -0.60805881 -0.0041257381 0.084760658 -0.64104891 -0.061414249 0.42210019 0.46281663 -0.39599463 0.13681699 -0.12673917 -0.35722372 -0.19563051 -0.35567072 -0.55581361 0.33559918 -0.63005483 -0.71441567 -0.3119503 0.40611207 -0.3589958 0.10170712 0.18582337 -0.18661712 -0.40081808 0.58214539 -0.7438001 -0.11010762 0.40780047 -0.31326473 0.31733695 0.10198608 0.31040812 0.92488128 0.07662084 -0.41213328 0.16792102 -0.3164508 0.2845934 -0.078172304 0.51554304 0.32550228 0.072559722 -0.61188865 -0.13172694 0.14738357 0.46019566 0.35727704 0.86382914 -0.44258511 -0.60711586 0.14691912 0.60614288 0.3478629 -0.1488788 -0.21254399 -0.64683962 -0.35312414 -0.13623343 0.17084745 0.60511392 -0.031061444 -0.035309497 1.0201098 0.34528494 -0.63699275 -0.11769232 -0.93804348 0.18214397 -0.27618077 -0.69616169 -0.2188635 -0.036039684 -0.87797391 -1.0724831 -0.16286187 0.0019120603 0.81514478 0.19209169 -0.26533777 -0.21740915 1.0559945 -0.25908726 0.46409583
to 0.71102226 0.51270652 -0.20968612 -0.30069426 -0.78269655 0.20598617 0.023794992 -0.62182212 0.20821752 0.39042616 -0.65381724 -0.080604754 -0.19113134 -0.63353467 0.38541833 0.62172115 0.12997459 -0.67702043 -0.090391897 -0.075948812 -0.50809383 -0.38047451 0.44149673 0.2919966 0.068993904 -0.060015451 -0.15746213 -0.1884322 -0.31787556 -0.13541926 -0.48533082 0.32971293 -0.31711224 -0.21420515 -0.14625794 0.35497022 -0.20424125 0.0057575931 0.21533746 -0.53885442 -0.49043483 0.22978976 -0.83079284 -0.063857526 0.43660828 -0.48057193 0.20526919 0.30493614 0.33560306 0.70909023 -0.0050614662 -0.2397832 0.013599376 -0.43151358 0.31178051 -0.055844977 0.34196344 0.17505467 -0.31177396 -0.25279388 -0.14154641 0.20186946 0.20132416 0.051981654 0.46521673 -0.45232716 -0.3679508 -0.2944653 1.0121986 0.31634685 -0.39561924 -0.49521825 -0.38595894 0.040513109 -0.52367294 -0.1891012 0.29303983 0.46709472 0.23210049 0.65856087 0.026053784 -0.49610388 -0.20505649 -0.54685909 0.50199479 -0.15552427 -1.052846 -0.21134673 0.062662035 -0.86304253 -0.88369852 -0.31613037 -0.32706642 0.76238787 0.072354153 -0.084242985 0.11647265 1.2076051 -0.39496908 0.39604756
the 0.18145102 0.27312651 -0.23239163 0.12286795 -0.17022651 -0.17597961 -0.00074681721 -0.6707477 0.26894334 0.664051 -0.19553085 -0.0031448957 -0.35334688 -0.086575523 -0.040524289 0.40747678 -0.23894988 -0.2499007 0.42840761 -0.2152124 -0.49439651 -0.028491918 0.8644346 0.35648108 -0.2576336 -0.18363106 0.043677066 -0.31007659 -0.18083988 -0.35397485 -0.38919246 0.055481572 -0.33936879 -0.065956652 0.074756511 0.040341787 -0.36699092 0.36157253 -0.073946431 -0.31749478 -0.12801947 -0.46344468 -0.55555135 0.1702942 0.072211087 0.016503166 -0.13875879 -0.015804619 0.027576569 0.54853463 -0.072743818 0.10460031 0.16842137 -0.40959054 0.0067847306 -0.10514536 0.35364223 -0.30904871 0.11408968 -0.27749178 -0.0995901 0.15022938 0.3546465 -0.097584687 0.39242154 -0.19398952 0.036907356 0.1977552 0.7338267 -0.45418686 -0.43670064 -0.028826343 -0.15583028 0.085796021 -0.4462567 0.042194974 0.7808733 0.54077923 0.53074133 0.31639394 -0.33829629 -0.11299604 0.29328212 -0.30683497 0.21495497 0.046630263 -0.34290558 -0.49877033 0.73412222 -0.0042787879 -0.32245088 0.13907689 -0.18141815 -0.0060146987 -0.13150299 -0.52530634 -0.17163949 0.18140501 -0.068828508 0.16916873
a -0.21585333 0.17015561 0.0066993129 0.08755324 0.081954308 -0.2316761 0.13100746 -0.64375836 0.58498394 0.42060262 -0.0027866561 -0.10052409 -0.59515351 -0.02160806 0.15614466 0.40914789 -0.22276929 -0.25127888 0.38348755 -0.27965483 -0.67946643 0.14586997 0.90461928 0.7868011 -0.18265492 -0.094632491 -0.067162134 -0.32816491 -0.24734741 -0.33425674 -0.20772713 0.091535024 -0.25128073 -0.15139861 -0.19991605 -0.023890164 -0.29727465 0.36750838 -0.20675664 -0.13995005 -0.12715085 -0.25739649 -0.6099146 0.53335124 0.042269781 0.040031821 0.052091498 0.041304264 -0.08493644 0.81928462 0.14929485 0.019790202 0.25667796 -0.34692454 -0.016059335 -0.18957616 0.39730266 -0.57972229 0.27869606 -0.23492357 -0.33281034 0.23983225 0.36361095 -0.022550086 0.36535475 -0.31685671 -0.36293283 0.35246202 0.71907365 -0.54518545 -0.30726513 -0.20740442 -0.096303329 -0.10191818 -0.48521069 0.14710119 0.63581419 0.33375981 0.27411076 0.21511588 -0.22650856 -0.0044988124 0.20527697 -0.33085334 -0.021358103 -0.051825158 -0.46354213 -0.42852035 0.87935942 0.45930389 -0.43136659 0.35204786 -0.29811546 -0.22593211 -0.1739759 -0.65423471 -0.31317768 0.1883142 -0.15203251 0.16454466
and 0.094491743 0.18798393 -0.076182693 -0.020756304 0.0057835104 -0.0077458001 0.23682752 -0.56471777 0.28353164 0.5941174 -0.17319678 -0.22878198 -0.58015496 0.016413629 0.078581087 0.42772913 -0.13875212 -0.31576726 0.14776452 -0.47708437 -0.47977206 0.084447563 0.65972769 0.5757252 -0.090481251 -0.057062309 -0.072399363 -0.30467823 -0.3128607 -0.34622538 -0.28989741 0.22414991 -0.27955529 -0.11386936 -0.10021706 0.073260076 -0.12506278 0.30316034 -0.10302821 -0.35933661 -0.19378032 -0.10709815 -0.53556752 0.24063039 0.29414546 -0.081146598 0.1107073 0.15956351 0.12542006 0.86621159 0.041468643 -0.0092055798 0.11291374 -0.30331454 0.034376092 -0.2090546 0.48350221 -0.32496572 -0.16162473 -0.27231178 -0.33727384 0.1271991 0.33996174 -0.12341391 0.48314691 -0.43251312 -0.35818148 0.26618978 0.88061851 -0.25002989 -0.46023956 -0.030051969 0.067390084 -0.15891007 -0.47814265 0.01366251 0.5058282 0.37238672 0.20326047 0.41316196 -0.16702321 -0.23706907 0.12880012 -0.30340791 0.12861118 -0.12799205 -0.6164906 -0.39000565 0.72980773 -0.17064242 -0.31686717 -0.014241149 -0.55602717 0.084351197 -0.087252147 -0.20384449 -0.241173 0.48024458 -0.20314956 0.2178743
my -0.16233145 0.23246394 -0.060642652 -0.069609366 -0.12010802 -0.054879744 0.19723415 -0.70281714 0.18154138 0.65961975 -0.2451784 -0.1571116 -0.39510718 -0.066051401 0.21758193 0.36745054 -0.17590532 -0.13745329 0.29347113 -0.55966312 -0.70225704 0.039096162 0.7627511 0.66472638 -0.25904071 -0.043614864 -0.011042907 -0.28395185 -0.15901275 -0.21686938 -0.15203504 0.00095433748 -0.32114854 -0.0034255136 0.10517029 0.0027725075 -0.19757947 0.39564273 0.016285978 -0.21939382 -0.03796117 -0.39692578 -0.64369357 0.32924172 0.18881653 0.12931928 -0.20159377 0.17466831 -0.083253883 0.76870948 0.073632427 0.15492418 0.17289898 -0.28406045 -0.01891445 -0.18896037 0.49644542 -0.42770377 0.057740904 -0.33715755 -0.3022795 0.40781164 0.24268101 0.083344541 0.38390827 -0.38036892 -0.34793192 0.22965793 0.64814603 -0.33852804 -0.57971597 -0.0023286059 0.11138314 -0.19166474 -0.36992419 0.14944428 0.80837774 0.24313311 0.38012254 0.16617829 -0.23043111 0.056731645 0.14212482 -0.23861468 -0.077384099 0.11496273 -0.24402082 -0.32402253 0.74239075 -0.21603099 -0.35265884 0.35412908 -0.35709086 -0.15622991 -0.18078035 -0.36154547 -0.074797273 0.48897442 -0.12397074 0.030329194
in 0.11246093 0.23714291 -0.075988978 0.058475982 0.1321553 0.059435658 0.20764568 -0.52352434 0.26838809 0.65579897 0.097237557 -0.31607854 -0.56170553 -0.18282379 -0.16995679 0.15786597 -0.31324548 -0.36533386 0.32802099 -0.27979353 -0.43623883 0.16085202 0.63025957 0.52475625 -0.19193128 -0.30845684 0.029586803 -0.20165743 -0.40667301 -0.24296454 -0.22293423 0.028534655 -0.25728798 -0.0074734222 0.073432267 0.068417422 -0.34595692 0.37197897 0.038128506 -0.34198076 -0.052523334 -0.23635478 -0.45446083 0.32551092 0.047378361 -0.004220163 -0.15344313 0.12466659 -0.017548729 0.67994779 0.063306771 0.0844412 -0.00538478 -0.35569948 -0.07277111 -0.2437325 0.28393251 -0.46879017 -0.060698047 -0.1051785 -0.31796008 0.14772698 0.52364671 -0.0094609112 0.40562817 -0.35442552 -0.1694151 0.2872588 0.95669752 -0.31683016 -0.51778209 0.1399969 0.048469059 0.049709797 -0.48611605 -0.084957778 0.49301007 0.60287839 0.43344197 0.027043801 -0.25445101 -0.017417861 0.24652085 -0.11424708 0.1521544 0.064325579 -0.58718169 -0.4105399 0.81781054 0.081081346 -0.25267977 0.14311554 -0.4975391 -0.20573141 -0.19191709 -0.34334365 -0.32477298 0.12051783 -0.079809032 0.14365147
 0.80496567 0.70015568 -0.47222757 0.47777075 -0.66413313 -0.011347427 0.48864692 -1.1167104 0.1010991 1.123247 0.2425932 -0.071189396 -0.91380084 -1.1884496 -0.53586251 -0.48714417 -1.1367232 -0.33321282 1.189338 0.88758022 -0.69150853 0.0048703966 0.85259289 0.31991699 -0.73551971 -1.2356293 0.72627473 0.17652363 -0.32085547 -0.018784387 -0.1246557 -0.80486923 -0.54141426 0.60361969 0.66517586 0.5463438 -1.1361196 0.86261797 0.72331649 -0.23960198 0.22916484 -0.93064117 -0.6501267 0.59984207 -0.80360776 0.74003106 -1.4415333 0.10704014 -0.35052958 -0.34305128 -0.12218212 -0.16916479 -0.6143294 -0.96564764 -0.72120541 -0.46663919 -0.17560644 -0.7774877 0.61332923 0.85521859 0.3483409 1.0018063 1.3392209 0.66693914 0.21460433 0.22929353 0.53235948 0.17643568 1.2362682 -0.74184018 -0.60498947 0.65060985 -0.4598586 0.85927528 -0.16421615 -0.76788348 1.0537294 1.175597 1.1025139 -0.94166791 -0.26073065 0.87922847 0.68473548 0.23281305 0.022533786 0.78406274 0.015361213 -0.77838653 0.98124772 0.62987429 -0.43120047 0.98532796 0.39273944 -1.004474 -0.62381905 -1.0738779 -0.89396793 -1.0186826 0.87003201 0.53402418
for 0.32176048 0.17611521 -0.15704603 0.13353077 -0.051068027 -0.066225857 0.18067272 -0.48520583 0.15366031 0.58924502 0.010645042 -0.30130339 -0.60016298 -0.17381443 -0.17621203 0.032976188 -0.34559107 -0.30626926 0.25796637 -0.23934944 -0.43155709 0.0094258673 0.59979779 0.37235922 -0.14590691 -0.27704695 0.12807935 -0.21085824 -0.38673818 -0.20730288 -0.3025561 -0.036270332 -0.18240939 0.076571055 -0.083664745 0.13459012 -0.31576657 0.22594674 -0.092997707 -0.43482718 -0.24904199 -0.25692579 -0.54576015 0.2229259 0.13750343 -0.047298186 -0.12784155 0.17299026 0.034570567 0.57635689 -0.053014152 0.11142497 -0.11416785 -0.42460349 -0.19820535 -0.27674079 0.32521582 -0.33533967 -0.17587288 -0.00737515 -0.23460814 0.26227379 0.49414727 -0.091058709 0.38329035 -0.39764419 -0.091290005 0.17513235 0.88304704 -0.23935959 -0.5404458 0.18061052 0.11893899 0.068548158 -0.40558699 -0.18469504 0.4673965 0.63017976 0.34524077 0.15347707 -0.28983316 -0.014706465 0.18729137 -0.057331339 0.20111983 -0.010962894 -0.66992509 -0.34102124 0.82880914 -0.062212519 -0.15116443 -0.024426913 -0.43558303 -0.15418462 -0.28085476 -0.17026868 -0.25621191 0.13751404 -0.083147012 0.33698189
of 0.24657977 0.13966686 -0.18918121 0.078010879 0.0057881912 -0.0039436198 0.21203925 -0.48025212 0.079546899 0.71194297 -0.0069490606 -0.32537857 -0.54915893 -0.16725844 -0.24857812 0.073227137 -0.40774074 -0.27711424 0.27168113 -0.29366058 -0.38985455 0.12070546 0.59833401 0.37897202 -0.17049451 -0.3426289 0.1399179 -0.19599041 -0.34838885 -0.28114021 -0.32485309 0.0080689713 -0.25079283 0.051224224 0.069581091 0.11018816 -0.33421841 0.35203266 -0.049876064 -0.44397566 -0.1462222 -0.34780803 -0.47586715 0.14593387 0.096025988 0.044762783 -0.14436771 0.20207597 0.025795911 0.55120724 -0.034319844 0.17919776 -0.073596209 -0.41599771 -0.15340553 -0.29361594 0.27323404 -0.37364763 -0.19409494 -0.0293136 -0.18195808 0.20575994 0.51322103 -0.11371886 0.43498757 -0.41063169 -0.074021086 0.26099735 0.80322975 -0.23629072 -0.59195453 0.2747938 0.14486136 0.051158641 -0.34532884 -0.13304596 0.51106471 0.65140933 0.39359266 0.17370762 -0.3124947 -0.063306257 0.3261427 -0.019128785 0.11878816 0.047792695 -0.53510064 -0.39414126 0.90270364 -0.11854456 -0.12576276 -0.039040837 -0.46313089 -0.13971092 -0.29162738 -0.1566743 -0.25702646 0.17297554 0.0014202284 0.16112742
is 0.72177398 0.47321478 -0.28026235 0.1252843 -0.69838744 0.17124353 -0.062078394 -0.38635156 0.024788193 0.57327026 -0.2070654 -0.12025598 -0.47159952 -0.77463216 -0.052337512 -0.029812749 -0.22965227 -0.33635929 0.17826654 0.32923645 -0.43145084 -0.15612383 0.26995149 0.15921398 -0.049580779 -0.37090284 0.21087795 -0.0027370772 -0.30640569 -0.066903859 -0.47446269 -0.22241588 -0.11579183 0.14939627 0.14294009 0.53454691 -0.57002652 0.094478272 0.220676 -0.44191936 -0.30429238 -0.29746574 -0.74476075 0.09346474 0.10344701 0.0088585559 -0.31532884 0.19870418 0.067617618 0.19623487 -0.053137213 0.14967561 -0.34511387 -0.63921481 -0.099594943 -0.18774866 0.15460038 -0.18844599 -0.13587418 0.30930457 0.036275405 0.58540195 0.26049447 -0.0018071748 0.57602412 -0.48876259 0.015571726 -0.087086849 0.87221509 0.068681546 -0.43779913 0.2306971 -0.14002073 0.09710075 -0.3811346 -0.55366141 0.41830412 0.68985987 0.61453408 -0.0078187166 -0.36506939 0.095080771 0.067724571 -0.10038295 0.19668594 -0.046706915 -0.63980204 -0.24177288 0.58781952 -0.41956767 -0.37202844 0.045708854 -0.15324406 0.1061683 -0.12674515 -0.17467281 -0.073597044 0.19393538 0.10697414 0.38089129
have 0.26300898 0.22064412 0.19514197 -0.22199382 -0.025456613 0.031213932 0.54533231 -0.83439076 -0.50597519 0.21376058 -0.28791702 -0.54811847 -0.66994852 -0.36450496 0.53891903 -0.035022423 0.048652228 0.11932614 0.11334319 -0.59931713 -0.37679112 0.072262108 0.20057504 0.29649273 0.092269637 0.0080462564 -0.00072657637 0.21263127 -0.31910056 -0.1998408 -0.15497382 -0.1933991 -0.049189873 0.34212232 0.19328344 0.22889249 0.1991429 0.26929346 0.37298018 -0.1590683 -0.28678614 -0.083356075 -0.26464343 0.45802206 0.25603291 0.23845355 -0.23484156 0.37146506 0.16030319 0.45697558 -0.1505276 -0.098516501 -0.11370526 -0.5888108 -0.12362944 -0.53182441 0.6193316 -0.43660432 -0.42443275 0.036526553 -0.34131458 0.57674581 0.22866982 0.019763799 0.35163632 -0.43268871 -0.49294883 -0.30097714 0.90783691 -0.11787722 -0.86070579 0.12149519 0.39962354 -0.17723107 -0.37641028 -0.51598293 0.27366149 0.34335881 0.23407388 0.11776588 -0.25167367 0.11078645 -0.22760993 0.0061610667 -0.098281465 -0.031637486 -0.60121858 -0.41249555 1.0571157 -0.6630891 -0.49342585 0.13215046 -0.56686711 0.13785045 -0.11667135 0.29085365 -0.22748972 0.75013846 -0.16931555 0.16518478
that 0.57022345 0.42150897 -0.13740079 0.057384778 -0.59030849 0.074159294 -0.042210989 -0.56678075 0.14164987 0.30751479 -0.3932817 -0.053585175 -0.57536936 -0.34282807 0.29078341 0.51100141 0.064279325 -0.35632962 -0.0061254227 0.1407152 -0.40041906 -0.23341197 0.31068432 0.26662418 0.0029080173 0.0001957076 -0.042495959 -0.1439549 -0.32931924 -0.19119692 -0.53637189 0.17048071 -0.22666027 0.017394911 -0.11991487 0.39608148 -0.20557564 0.043828279 0.14492939 -0.3997134 -0.52488786 -0.0012301275 -0.77506834 0.12589082 0.33583909 -0.1125509 0.038250841 0.15298201 0.23097076 0.660034 -0.026625706 -0.11237997 0.0029416408 -0.45988935 0.11947413 -0.13849856 0.51136595 -0.042122684 -0.25231135 -0.17222849 -0.089603141 0.33200437 0.17855047 -0.1521585 0.64630646 -0.3730647 -0.34719476 -0.044001233 0.86311018 0.051960021 -0.40756592 -0.13739485 -0.2530565 -0.17320006 -0.36335114 -0.42500439 0.34453559 0.33447257 0.19259433 0.54383385 -0.1448451 -0.2598992 0.020791626 -0.37813243 0.31234866 -0.36507568 -0.78396058 -0.33796677 0.36333835 -0.53321993 -0.63448054 -0.023795459 -0.26836506 0.60597908 0.11799303 -0.13087159 -0.0061441641 0.65600789 -0.036496844 0.34571159
it 0.67711979 0.49613973 -0.1593466 -0.043306544 -0.59160179 -0.046249755 -0.1833984 -0.62229371 0.11617208 0.34687689 -0.50544232 -0.00011262095 -0.40395254 -0.29244232 0.33146459 0.68138838 0.13138726 -0.33326277 -0.020790072 0.037797067 -0.37530732 -0.27273971 0.42959881 0.18018456 -0.050181612 0.059193339 -0.060830876 -0.18073803 -0.2422536 -0.18379068 -0.59015894 0.19191423 -0.2905899 -0.045597266 -0.14456043 0.2573185 -0.15118042 -0.046481263 0.21090648 -0.35914028 -0.56003863 0.05708041 -0.7591722 0.0470968 0.37819639 -0.27609828 0.15274303 0.21473564 0.31953841 0.63020426 -0.030259598 -0.1609854 0.10474705 -0.40620124 0.19703193 -0.020954944 0.56569093 0.085731037 -0.15723972 -0.36078262 -0.05684929 0.22658481 0.086011492 -0.166198 0.55249286 -0.27192244 -0.24980196 -0.18689753 0.92564493 0.059703749 -0.46216708 -0.28438148 -0.34342957 -0.15769196 -0.45419806 -0.28721353 0.39404687 0.32443652 0.31333756 0.76760507 -0.11657964 -0.41111565 -0.039211527 -0.53174996 0.40546116 -0.33998233 -0.81328905 -0.34840548 0.28939733 -0.73693162 -0.80321014 -0.17173608 -0.22498272 0.8366127 0.095837072 -0.12457015 0.079790562 0.9334715 -0.1698204 0.30718905
on 0.28605202 0.26081932 -0.17025784 -0.06420783 -0.22994886 0.06388706 0.3198581 -0.64970005 -0.046452899 0.65748942 -0.17811061 -0.31195393 -0.52078623 -0.40221378 0.030912444 0.11586433 -0.28979653 -0.24293929 0.22780971 -0.41279748 -0.48227727 0.055200063 0.49403262 0.41818914 -0.1311983 -0.21898142 0.096782684 -0.14802375 -0.28022215 -0.21333566 -0.20500158 -0.041637659 -0.27244213 0.10130937 0.095761023 0.13589472 -0.23921047 0.33822024 0.082988806 -0.39328408 -0.060266886 -0.22840229 -0.53042185 0.22782575 0.16746098 0.091263078 -0.18763937 0.30457631 0.027296996 0.53794891 -0.013304963 0.025118085 -0.078559794 -0.36906299 -0.073367469 -0.29571939 0.35454074 -0.34529582 -0.17576022 0.0049749617 -0.22137739 0.41102111 0.42277467 0.10067619 0.36817014 -0.40925685 -0.24901848 0.1001383 0.80316085 -0.16008046 -0.60991168 0.15343216 0.1311345 -0.0034822996 -0.37652627 -0.17050774 0.52485055 0.49091738 0.38182685 0.087880738 -0.19250099 -0.0086043365 0.099637538 -0.073050663 0.020174082 0.1392183 -0.44249618 -0.31573111 0.72400957 -0.35881677 -0.26294023 0.069425806 -0.46632418 -0.1526553 -0.24054667 -0.10936707 -0.20816073 0.50430733 -0.079212256 0.19500063
this 0.6665647 0.49642643 -0.26552084 0.081259146 -0.85963672 -0.011732584 -0.15219533 -0.5996263 0.05912108 0.49064639 -0.33455423 0.17407435 -0.4489859 -0.45452195 0.12917677 0.35017669 -0.12590756 -0.36648574 0.22536097 0.51660448 -0.54148316 -0.3128469 0.41445863 0.18604618 -0.20152217 -0.15489033 0.059904721 -0.16274761 -0.19928665 -0.13301712 -0.52139992 -0.042536698 -0.33824489 0.020214571 -0.0384994 0.45887706 -0.41850355 0.12602441 0.19216055 -0.3767994 -0.49263009 -0.16914523 -0.84842235 0.066589244 0.10947922 0.08243148 -0.19828105 0.032743372 0.040994812 0.46284479 -0.080750965 -0.09684515 -0.016943822 -0.58285731 -0.073589273 -0.11738376 0.32635221 0.016535165 -0.038269557 -0.067841567 0.061781883 0.44816983 0.33009046 -0.013565741 0.56989926 -0.30492815 -0.14142562 -0.051308915 0.69465703 0.00066737732 -0.42185643 -0.045023147 -0.49311429 -0.014647224 -0.19418837 -0.42124262 0.59728664 0.47072357 0.34291947 0.42410609 -0.21092843 -0.089591473 0.073731489 -0.33220276 0.34188572 -0.19319001 -0.58213693 -0.38172218 0.33736983 -0.28994203 -0.6422441 0.12404061 0.16134022 0.38773832 0.046539538 -0.39485538 -0.040178042 0.38138357 0.14696726 0.3378529
with 0.038270019 0.15725999 -0.0025569848 -0.051715448 0.042632807 0.044998333 0.27816296 -0.4874838 0.20594802 0.5344494 -0.097052023 -0.32776996 -0.59224588 -0.19550356 0.11687883 0.22080204 -0.23119214 -0.26819173 0.11133453 -0.42791349 -0.53809941 0.10977942 0.53202391 0.60104275 -0.081527203 -0.16883972 0.014316259 -0.18618496 -0.34164077 -0.24252672 -0.20450863 0.032186814 -0.18357107 -0.033190634 -0.025266718 0.091908559 -0.24633898 0.27945793 -0.04737442 -0.29306602 -0.13567355 -0.15668683 -0.57654166 0.35778511 0.27270937 -0.023980314 -0.0042938921 0.23915029 -0.011419488 0.75805587 0.092079051 0.082241572 -0.0045033284 -0.32059783 -0.058684893 -0.34543678 0.4142653 -0.45288587 -0.18082535 -0.093928732 -0.37106994 0.34740356 0.33566958 -0.0016783662 0.46162322 -0.53299886 -0.43445393 0.24353899 0.79456842 -0.17823961 -0.51162356 0.093290649 0.21472883 -0.1802281 -0.33270341 -0.066644624 0.44446051 0.3780143 0.23781131 0.14596416 -0.1911093 -0.069726393 0.10098406 -0.12443562 -0.029185385 -0.044458482 -0.62085271 -0.29531828 0.86405814 -0.2135593 -0.32064238 0.10905021 -0.59235656 -0.091954969 -0.23754665 -0.15685901 -0.21470878 0.44624203 -0.16909042 0.17573433
but 0.5767346 0.43425611 -0.11258854 -0.058088202 -0.60143638 0.089098834 0.10539594 -0.63886404 0.04244623 0.28547537 -0.41463163 -0.15287207 -0.55029017 -0.46425423 0.36920205 0.38216037 0.057373103 -0.31282878 0.017091351 -0.022296013 -0.43117526 -0.16260955 0.27427456 0.31430215 0.08358945 0.035781872 -0.062480778 -0.032420598 -0.30633268 -0.22450227 -0.45119292 0.1326493 -0.21560194 0.019219227 -0.060423534 0.40284786 -0.11250152 0.14800511 0.1433316 -0.3607848 -0.42825654 0.060351796 -0.67772639 0.17081155 0.29754627 -0.039126113 0.053887423 0.2247266 0.19787043 0.62870455 -0.04753948 -0.15338509 -0.0080348365 -0.46600631 0.070006512 -0.21295515 0.46791464 -0.077232048 -0.19934119 -0.048512507 -0.0982389 0.38134152 0.23831269 -0.070535429 0.58801758 -0.42766786 -0.38956749 -0.087542698 0.89904541 0.065071359 -0.42733505 -0.17196296 -0.20166892 -0.13735667 -0.35823581 -0.46956187 0.35634235 0.36550564 0.19875677 0.45282322 -0.12770836 -0.22025737 -0.082411289 -0.33347744 0.20883565 -0.2694422 -0.76440448 -0.32780492 0.47492248 -0.55073321 -0.6376313 -0.0613878 -0.28939915 0.4417105 0.063503623 -0.0858576 -0.077866077 0.75548559 -0.079299748 0.3555527
be 1.3366109 0.64485747 -0.41022423 0.34968889 -1.059889 -0.17889667 -0.26877451 -0.78960514 -0.014640674 0.30451789 -0.48145568 0.15520233 -0.74138439 -0.41528499 -0.036799725 0.3632575 0.12974311 -0.16677438 0.15252449 0.5098877 -0.094269872 -0.62135446 0.2122432 -0.29208016 -0.3585861 -0.048483476 0.087349467 -0.21440865 -0.29370317 -0.11026684 -0.89965421 -0.22443779 -0.29423207 0.26488841 -0.13837488 0.59598279 -0.3040826 -0.14176738 0.29653841 -0.47168782 -0.71635288 -0.046919167 -0.83803034 -0.050589118 -0.045881238 -0.1384795 -0.28128582 0.1776507 0.40375537 0.22398254 -0.23895362 -0.16989449 -0.34270623 -0.61662912 0.11191425 0.10941444 0.4062033 0.30727491 -0.1554607 -0.26238737 0.043764394 0.32156098 0.29741019 0.076117754 0.83236837 0.030273672 0.33101034 -0.45647025 0.94308156 0.13902886 -0.74212712 0.12104055 -0.54186499 -0.1209191 -0.51667392 -0.56366253 0.4424839 0.41370839 0.70097327 0.8883298 -0.31009227 -0.1509793 0.068338111 -0.54831958 0.62422138 -0.34025201 -0.60840148 -0.43066165 0.14267631 -0.89281607 -0.70268786 0.12240621 -0.12372549 0.92650729 0.10019109 -0.040136077 0.19519828 0.63974762 0.22701362 0.52749652
was 0.12138925 0.18883987 0.059116289 0.038665894 0.14865263 0.0085959807 0.116001 -0.57632291 0.083925918 0.24407086 -0.16057543 -0.63828421 -0.62860417 -0.14373372 0.34488103 0.27236113 0.11496731 -0.080296874 -0.021612069 -0.68842596 -0.31697512 0.13541366 0.53174287 0.49179929 0.20280327 0.18870774 -0.0069210916 -0.12381567 -0.38633335 -0.27363724 -0.27848488 0.18607435 0.042592242 0.19505154 -0.14109759 0.080167517 0.089600511 0.046671078 -0.1120787 -0.38301688 -0.34885526 -0.17363019 -0.54046541 0.39335528 0.43762755 -0.13469654 0.23789541 0.43278211 0.22830188 0.7960282 -0.097395539 0.057550713 0.044206716 -0.36273625 0.064649031 -0.21977735 0.62026185 -0.4484199 -0.23514217 -0.10596664 -0.31957787 0.2031462 0.080897644 -0.45557237 0.30283374 -0.51670176 -0.4395853 0.08947587 1.1805317 -0.31391513 -0.48774606 -0.21166104 0.33502793 -0.25074312 -0.57412094 -0.38340202 0.21205816 0.33088425 0.1964922 0.26844716 -0.39317888 -0.162578 0.033805057 -0.14782618 0.12662393 -0.30557236 -0.83112955 -0.35570368 1.0651044 -0.29802972 -0.33788815 -0.23354277 -0.70361584 0.21284235 0.010971304 -0.033085428 -0.26633322 0.65545321 -0.44309539 0.21579181
me 0.54446948 0.46239281 -0.14822215 0.11288564 -0.50441808 -0.0032193356 -0.1797685 -0.54311353 0.24109504 0.25644422 -0.32216814 -0.091373295 -0.53056586 -0.20266965 0.18475482 0.48769301 0.0029638703 -0.2877861 0.053127531 0.17431808 -0.41348448 -0.20275578 0.38682503 0.18360613 -0.014213159 0.022662178 -0.067476623 -0.25636587 -0.36407724 -0.19351314 -0.62290859 0.088005818 -0.1446151 0.053748947 -0.24066021 0.34519392 -0.30655622 -0.093225405 0.022758504 -0.35287109 -0.64368647 -0.16222887 -0.7992655 0.10708282 0.23714222 -0.24363023 0.037947327 0.10034408 0.29418617 0.53384501 -0.02034362 0.037406106 -0.0017303778 -0.48295462 0.086610734 -0.075909846 0.5476402 -0.091145515 -0.21333745 -0.27941415 -0.072389446 0.25574744 0.099801116 -0.24595197 0.61947632 -0.36471683 -0.20825101 -0.067285076 0.89299464 -0.02659164 -0.40123466 -0.11965228 -0.18101712 -0.1756099 -0.50622731 -0.33105043 0.34441128 0.41234383 0.26413095 0.6147334 -0.31999931 -0.17763798 0.09802942 -0.34004965 0.3408758 -0.3552267 -0.85227251 -0.29537794 0.4189586 -0.50157565 -0.56691146 -0.026348237 -0.31714311 0.64943683 0.053796016 -0.12800901 0.037159212 0.51873416 -0.029275227 0.3986856
or 0.70584548 0.49510172 -0.18666555 -0.041811492 -0.57350647 0.040490907 0.11923435 -0.66941053 -0.090220883 0.49564487 -0.36348599 -0.06833937 -0.44180852 -0.56923115 0.15809873 0.20629869 -0.14968929 -0.25153285 0.21530581 0.083326951 -0.39480487 -0.22744839 0.32348812 0.12376186 -0.2004662 -0.224705 0.018169789 -0.072255239 -0.26912385 -0.11294039 -0.39483207 -0.094282538 -0.30977067 0.098224752 0.093288325 0.35210216 -0.24186929 0.18181419 0.32474205 -0.3888745 -0.24301523 -0.1322833 -0.60907841 0.14122942 0.040519584 -0.014722229 -0.28166151 0.13803431 0.14832537 0.33303216 -0.071484014 -0.14360848 -0.10341635 -0.53623003 -0.014346133 -0.18591307 0.27621639 -0.087675788 -0.11272962 -0.070473373 -0.021594413 0.39916977 0.36802018 0.11261993 0.48790109 -0.19850554 -0.051252879 -0.20761445 0.82256913 0.014614737 -0.65314996 0.014262388 -0.21278687 0.10225781 -0.34747809 -0.36954391 0.53393495 0.51186836 0.539469 0.28860411 -0.17882916 -0.060889762 0.022734979 -0.30059803 0.28538865 0.0047878311 -0.5770613 -0.32135051 0.44057864 -0.53406429 -0.61554915 0.099149533 -0.15898184 0.27744111 -0.089588903 -0.17718308 -0.050500989 0.60736066 0.022437595 0.31766459
about 0.24150063 0.33374968 -0.042879391 -0.00046588713 -0.15278992 0.0075035659 0.23626556 -0.57406485 0.12796077 0.37163571 -0.052958641 -0.28385347 -0.65675277 -0.29518887 0.13404723 0.2436192 -0.14114457 -0.27255172 0.18321761 -0.14628175 -0.44784996 -0.0015957506 0.50986236 0.47104156 -0.077381887 -0.099527702 -0.043410834 -0.09269619 -0.32944429 -0.26780519 -0.21880333 0.054792397 -0.23175335 -0.0097310087 -0.075241953 0.17215317 -0.18639721 0.22759046 0.028765673 -0.31512806 -0.26722112 -0.076862976 -0.49092478 0.34638298 0.082803346 0.039029922 -0.043356139 0.18388142 0.026610378 0.62526733 0.015103677 -0.12290117 0.027344998 -0.45503142 -0.073620997 -0.21847509 0.3705692 -0.3414405 -0.044980206 -0.061087679 -0.17505506 0.26582092 0.30433911 0.0053595901 0.40958622 -0.37665337 -0.34072474 0.091461711 0.87858707 -0.24920204 -0.41337183 -0.090424582 -0.054511838 -0.059088346 -0.3657195 -0.29935437 0.37153193 0.48227444 0.27741116 0.18406463 -0.2338997 -0.095055819 0.059692781 -0.20167245 0.12847444 -0.08424785 -0.67965758 -0.39258638 0.78270018 -0.0022375653 -0.47956231 0.017826393 -0.27497149 -0.0043455912 -0.041678112 -0.25611451 -0.33741957 0.39710018 -0.077990085 0.22925086
not 0.80683059 0.57007903 -0.13593157 -0.027154699 -0.94189394 0.1704134 -0.12210562 -0.52674663 0.063934624 0.24438821 -0.40090176 -0.013698662 -0.58640504 -0.51731783 0.31392893 0.4882127 0.13791907 -0.49107957 0.0066233966 0.44058272 -0.49424806 -0.33519602 0.21725787 0.19998516 0.01037477 0.090096347 -0.18518288 -0.11354692 -0.33338267 -0.16731855 -0.5880602 0.13257912 -0.33227137 -0.10917325 -0.10355633 0.56105727 -0.31970853 -0.025202002 0.19572076 -0.44498375 -0.65379393 0.059544899 -0.93292314 0.038863316 0.27191693 -0.065697543 0.041550178 0.12813002 0.11693753 0.65244269 -0.054937217 -0.17207278 -0.073785342 -0.55423713 0.1453861 -0.13323677 0.46676159 0.061148301 -0.27466765 -0.18351641 0.0062664738 0.41293857 0.11329731 -0.080491588 0.75618607 -0.49447677 -0.42296058 -0.060030129 0.81402928 0.28513283 -0.30362356 -0.21311933 -0.45892057 -0.22197179 -0.24678151 -0.54048276 0.30307162 0.41697297 0.27787161 0.66636699 -0.16630132 -0.29468003 -0.058328297 -0.43506217 0.44557533 -0.38195786 -0.90781337 -0.27570421 0.27279463 -0.56843835 -0.78376442 -0.094812401 -0.035433058 0.69460505 0.23398784 -0.18173951 0.0073801698 0.76383936 0.093706176 0.3777982
im 0.5703662 0.41063517 -0.14060791 -0.053159036 -0.57946444 0.068328105 -0.014141642 -0.48871329 0.21287486 0.28834769 -0.20373328 -0.17551893 -0.63766599 -0.34549573 0.16830836 0.33398628 -0.028561987 -0.39955735 0.12455172 0.18755253 -0.50469095 -0.1232105 0.40213817 0.28657776 -0.031140042 0.13372003 -0.18130849 -0.13567431 -0.35693741 -0.27955186 -0.49850494 0.039506186 -0.23370868 -0.10763312 -0.17071372 0.43738449 -0.28390759 -0.019440843 0.033561278 -0.31063616 -0.58278716 -0.0017796862 -0.8226043 0.13634935 0.21234028 -0.14742488 0.092131056 0.14088403 0.069043785 0.66736192 -0.019496636 -0.021231392 -0.034764607 -0.57154781 0.027939625 -0.15234981 0.41628382 -0.12745801 -0.068651095 -0.16148327 -0.054983515 0.302627 0.099475548 -0.17159423 0.69570893 -0.50765914 -0.32362804 -0.024808681 0.89743727 0.072306544 -0.34887984 -0.19898303 -0.22641972 -0.16713902 -0.41454506 -0.37616044 0.38348582 0.4870449 0.31940791 0.58295214 -0.24694733 -0.1649906 -0.046509791 -0.37080634 0.32406572 -0.27047729 -0.89928949 -0.27075499 0.5239622 -0.25734618 -0.60048699 -0.15904282 -0.12342061 0.37650651 0.13819815 -0.21294244 -0.15529744 0.50444692 -0.068716086 0.34889376
if 1.1847465 0.78310585 -0.18115389 0.024831351 -1.1645241 0.21920495 -0.055271365 -0.7196393 -0.20516615 0.1101774 -0.55262268 -0.06834475 -0.55522037 -0.92864448 0.52965981 0.30369744 0.16205429 -0.39677596 -0.0077428478 0.60056961 -0.31727222 -0.48015484 0.0033590503 -0.030939329 0.097369455 -0.029747261 -0.01837552 0.073226906 -0.38646579 -0.017818592 -0.63922733 -0.034665804 -0.27325884 0.22608817 0.0037519005 0.77547717 -0.2230774 -0.12849313 0.49507859 -0.59669352 -0.73444819 0.013059404 -0.89726746 0.0391174 0.19653429 -0.05047822 -0.19480875 0.18176007 0.30295527 0.336721 -0.20227951 -0.24544416 -0.26339856 -0.76385903 0.084970467 -0.13594934 0.44629246 0.14356828 -0.37295374 0.072032519 0.17549515 0.62324935 0.17747338 -0.062390894 0.69459146 -0.29963091 -0.24056105 -0.46114975 1.0846627 0.3324579 -0.5220843 -0.20372498 -0.45511889 0.03585 -0.31624678 -0.95577407 0.23817231 0.56995642 0.37062255 0.50663847 -0.24532814 -0.16347164 -0.15412533 -0.38791028 0.55487317 -0.35984609 -0.98022306 -0.32109058 0.22210363 -0.85804176 -0.92464811 -0.062746495 -0.016618097 0.82722402 0.23272623 -0.055503704 0.0763724 0.89228809 0.11208179 0.53260165
at 0.13413917 0.12040714 -0.12678199 0.16727453 0.20972109 -0.15069881 0.26104185 -0.52447724 0.23468041 0.71264178 0.17050013 -0.38488874 -0.67199653 -0.10628677 -0.26570606 0.10390954 -0.41550073 -0.28219584 0.37979284 -0.42599115 -0.40449953 0.22942385 0.75359511 0.48183966 -0.20555606 -0.27760622 0.11877862 -0.19853927 -0.34713137 -0.3744095 -0.19728272 0.043538813 -0.20770171 0.031842496 0.0034298606 -0.03329869 -0.26688197 0.4607223 -0.17648299 -0.33269823 -0.04158185 -0.33850923 -0.43578053 0.27632493 0.014510997 0.096502848 -0.062104747 0.20548895 -0.058046088 0.62517279 0.0037002307 0.12979424 -0.059356183 -0.36722144 -0.24733688 -0.27027017 0.26467335 -0.48708248 0.0090074297 -0.036376767 -0.30225104 0.19198921 0.6020214 -0.066379867 0.30408281 -0.32928848 -0.06619589 0.36245367 0.89308548 -0.46443611 -0.50605887 0.19343947 0.15603217 0.093083985 -0.42484361 -0.018572671 0.57282144 0.62593567 0.38121757 0.08046414 -0.27919963 -0.053298514 0.32667372 -0.03001792 0.029020941 0.087042764 -0.43416423 -0.47763333 1.0777421 0.27336502 -0.081722826 0.035662774 -0.41394433 -0.46447101 -0.29277539 -0.35678035 -0.49353597 -0.0030730381 -0.13420124 0.13884534
so 0.61042029 0.47857371 -0.084873125 -0.022421664 -0.56618708 0.059021652 0.084254593 -0.66732436 -0.047400508 0.24968445 -0.33599758 -0.15392119 -0.55030757 -0.45209238 0.34290907 0.33620733 0.011252127 -0.28329951 0.087035894 0.079062045 -0.36981302 -0.17378178 0.24759267 0.2215852 0.024934079 0.012373837 -0.072648115 -0.074165687 -0.30547884 -0.18952088 -0.4160054 0.0662449 -0.25820252 0.082909442 -0.049507782 0.38268217 -0.11252883 0.070042215 0.2080086 -0.38349453 -0.46182761 -0.029396188 -0.62729758 0.16775888 0.16095163 0.025043694 -0.067917064 0.16926102 0.20494066 0.50794917 -0.10340306 -0.14461885 -0.021654364 -0.53276092 0.026030602 -0.1695945 0.4822593 -0.084953621 -0.2314195 -0.1276432 -0.075128876 0.38376567 0.23578079 -0.053602759 0.53802532 -0.32098016 -0.31890211 -0.13940322 0.89285821 0.038251769 -0.50341547 -0.14482743 -0.19518574 -0.084660918 -0.37848598 -0.50360364 0.33178738 0.44499952 0.28659436 0.44291288 -0.18699345 -0.14372376 -0.044688486 -0.30667686 0.2833426 -0.20976873 -0.72022104 -0.35629186 0.46341565 -0.48365638 -0.64360666 -0.011140286 -0.21137339 0.42100185 0.09821032 -0.090504237 -0.097438872 0.67994654 -0.021450531 0.31211442
do 1.2859012 0.89380646 -0.11319662 -0.27637628 -1.3476578 0.39415568 0.061438207 -0.98553878 -0.33440784 0.086260036 -0.76219457 -0.095921278 -0.57039672 -1.1371807 0.79230648 0.30550119 0.26431274 -0.33335522 -0.076617479 0.48139614 -0.42170227 -0.53140742 -0.1466683 -0.0071306443 0.082372196 0.073266968 -0.11461283 0.20780157 -0.37239915 -0.011802173 -0.55082273 -0.10929251 -0.20277315 0.21705979 -0.01732441 0.95191032 -0.11885866 -0.22144242 0.67416757 -0.50412881 -0.83387202 0.14212921 -0.91684353 0.1085152 0.16676216 -0.08412087 -0.27549633 0.24031574 0.42986473 0.33329165 -0.24431853 -0.31622559 -0.24846989 -0.90307665 0.094180621 -0.15931742 0.52488232 0.15795963 -0.38231689 0.098456889 0.13028339 0.78528076 0.082462035 0.15754505 0.72040886 -0.41936108 -0.46634823 -0.73057878 1.1624472 0.46156764 -0.71507978 -0.33392143 -0.41435847 -0.03809642 -0.38375774 -1.039843 0.26644784 0.45988846 0.32368538 0.48475477 -0.21835595 -0.072435603 -0.39036363 -0.37748507 0.40161234 -0.28986165 -1.0594108 -0.2771337 0.20076317 -1.1977427 -1.1930789 0.021551123 -0.0049000671 0.93807703 0.27929792 0.096505061 0.11132626 1.2328802 -0.0019010364 0.50522238
as 0.49386376 0.37531608 -0.17776592 0.055015717 -0.38019964 0.013140888 -0.12740292 -0.59702861 0.16531266 0.32593608 -0.29659399 -0.17665368 -0.53797215 -0.32994789 0.15569408 0.37747702 -0.039376624 -0.33789477 0.10048578 -0.037500426 -0.36302912 -0.1109133 0.39134091 0.35127559 -0.033619035 -0.043136772 0.022863917 -0.12225405 -0.35265335 -0.17327562 -0.43571502 0.097027175 -0.22462711 0.087739773 -0.11230443 0.21012254 -0.21942757 0.10586954 0.015781289 -0.3863613 -0.3952457 -0.074914336 -0.67303622 0.13934566 0.2732943 -0.033356793 0.033073448 0.21631405 0.13960183 0.60383499 -0.030471141 0.0794672 0.0030413424 -0.40978765 -0.0021812825 -0.15406708 0.50246787 -0.11788727 -0.1831973 -0.092542417 -0.16543807 0.29774436 0.22104885 -0.005866956 0.46857336 -0.40679139 -0.31561527 0.040714081 0.94135118 -0.038880818 -0.46413007 -0.054197032 -0.11149929 -0.096570261 -0.41937491 -0.32139778 0.28749391 0.49161303 0.30548251 0.42593625 -0.27316341 -0.15288098 0.013414323 -0.2728228 0.21190113 -0.24304275 -0.68908995 -0.32918885 0.50127292 -0.46840283 -0.46347964 -0.047641426 -0.39543077 0.42034468 0.022875015 -0.079458997 -0.07044328 0.49998796 -0.13385171 0.28699547
we 0.64877057 0.52641499 -0.1937646 -0.14498194 -0.52572823 0.086804383 0.025737023 -0.66625816 0.34397754 0.66624635 -0.3723065 0.16147384 -0.47937667 -0.189705 -0.081550233 0.51388431 -0.19656304 -0.48369515 0.33129212 0.19321172 -0.43547922 -0.15555456 0.45977917 0.22065949 -0.26049158 -0.29369989 -0.04415042 -0.22805104 -0.2739647 -0.18308535 -0.54368633 0.083091862 -0.45365322 -0.16709173 -0.11514513 0.32419112 -0.43825957 0.18694118 0.22545186 -0.18427613 -0.35430089 -0.0083283009 -0.60874808 0.069428429 0.055272024 -0.19109704 -0.12097278 -0.066773638 0.16977043 0.43786639 -0.014504511 -0.1400941 -0.035612196 -0.52725011 0.19673623 -0.04905523 0.34782577 0.02918379 0.03509314 -0.2272715 -0.11001091 0.15025409 0.39949328 0.15088697 0.68180901 -0.24126787 -0.095979728 -0.028706422 0.80727702 -0.044044167 -0.38283107 -0.024105951 -0.42145798 0.023004297 -0.47672012 -0.081802793 0.58413041 0.47547427 0.39225072 0.50346357 -0.021239953 -0.21350107 0.11258932 -0.58701867 0.35587075 -0.16135257 -0.60067272 -0.3891764 0.25907549 -0.32864243 -0.65143812 0.022096246 -0.093823619 0.5057416 0.10604753 -0.29493219 -0.20586078 0.34990016 0.097694077 0.4187347
would 1.2248784 0.83717829 -0.28814527 0.10262194 -1.1424078 0.10568038 -0.31790164 -0.60527092 -0.032559652 0.14219074 -0.4816528 -0.19218381 -0.30752906 -1.2371175 0.22861984 0.2316376 0.033459246 -0.57263654 0.064509608 0.44333339 -0.46674526 -0.74462014 0.35472968 -0.038759355 0.1521536 -0.28687927 0.084920876 0.18866065 -0.42776081 0.19416335 -0.57390952 -0.026077997 0.098812036 0.38467264 0.0059289383 0.45294788 -0.33746499 -0.11934546 0.4424676 -0.50453448 -0.67131764 -0.0615375 -1.079236 0.12183204 0.24646769 -0.54238653 -0.064074963 0.54385608 0.31804278 0.19208489 -0.081422605 -0.15674865 -0.15262516 -0.70000184 0.091326863 -0.12398566 0.41095918 0.15492123 -0.27542081 0.29063609 0.09218771 0.48241919 0.13777363 -0.11007756 0.19694091 -0.30504712 -0.047262751 -0.67857218 1.2240448 0.045477457 -0.43454942 -0.58735764 -0.52891868 0.24347086 -0.66330087 -0.94946134 0.12763783 0.81108093 0.53457761 0.18246341 -0.13884386 -0.22600113 -0.10496013 -0.22541906 0.77155703 -0.1567637 -1.2206217 -0.26152289 0.18565169 -0.62583637 -0.98871273 -0.17546384 -0.16429996 0.8113023 -0.021219308 -0.08321622 0.21289191 0.80033946 -0.1544902 0.49071196
credit -0.54321015 -0.17983058 -0.077973515 -0.39448157 -0.045718733 -0.14655773 0.97776037 -1.1275406 -0.41435075 0.71566522 -0.60944289 -0.14526054 -0.24759898 -0.71726251 0.86754042 -0.12370659 -0.47746816 0.49504575 0.20880604 -1.4869397 -0.88027406 0.18200614 0.65392405 0.78273618 0.23118377 -0.14898852 0.18908405 0.066886179 -0.17825802 -0.35429409 0.1277743 -0.47670725 -0.59061879 0.21966419 0.53756422 -0.38714895 0.1578235 0.94645923 -0.074199587 -0.19893271 0.79461747 -0.33643597 -0.51903045 0.83639389 0.63125801 0.66451979 -0.22497632 0.94522828 -0.26764336 0.79558885 0.09600687 0.2471631 0.22222123 -0.12752621 -0.020038975 -0.69976497 0.58606982 -0.73227775 -0.18424411 0.17704743 -0.56175631 0.93298644 0.65596235 0.45768693 0.56219494 -0.73653418 -0.77203059 0.21366583 0.2023824 -0.25471568 -1.2494591 0.18604568 0.69532186 -0.40224642 0.20037617 0.31127331 1.2586271 -0.097564861 0.50583398 -0.11865717 -0.12773119 0.19776392 -0.13337648 0.11011858 -0.88266224 0.36711195 0.093762487 -0.37621441 1.3721896 -1.1741164 -0.22392569 0.82148612 -1.1239074 -0.97441512 -0.9121514 0.10384561 0.29248556 1.421604 -0.22039951 0.31571838
am 0.2296267 0.3028461 0.12266042 -0.11763164 -0.14573599 0.10298327 0.35748121 -0.80422658 -0.25375912 -0.062571131 -0.092843734 -0.59668094 -0.67202681 -0.53475076 0.57710105 0.016781716 0.095187977 -0.071284637 0.12044878 -0.36036763 -0.35714677 0.015712379 0.25425726 0.37944016 0.16164869 0.22904114 -0.15700665 0.086391181 -0.41193488 -0.21189639 -0.13031796 -0.095517009 -0.068440229 0.34256187 0.039101236 0.31175601 0.17091532 0.10462862 0.19750792 -0.32020932 -0.40410277 -0.12639511 -0.48451975 0.49262714 0.070388615 0.22508644 -0.12898555 0.33657822 0.015596285 0.60723376 -0.10803594 -0.064727664 -0.014025211 -0.60163838 -0.086682916 -0.34394899 0.49048623 -0.45774373 -0.2300777 -0.018190455 -0.20144188 0.47589511 0.18511626 -0.10950471 0.35099408 -0.4202767 -0.51826298 -0.21996932 1.0317602 -0.13202852 -0.6140421 -0.22045791 0.20187688 -0.13342601 -0.38903528 -0.65464371 0.22059801 0.38226902 0.2299241 0.10578662 -0.42294225 0.12380904 -0.18892613 -0.022470769 0.095092475 -0.11566497 -0.75621521 -0.37148359 0.93940485 -0.17942756 -0.51667768 0.068104222 -0.3081241 -0.035620313 0.08548855 -0.021790106 -0.2725935 0.7036953 -0.20134264 0.13386415
what 1.243844 0.78394574 -0.20408143 -0.064364322 -1.4183112 0.20974484 -0.11127676 -0.83956492 -0.20973071 0.26852497 -0.72352695 0.24616186 -0.52483636 -0.81111163 0.50141025 0.45355266 0.12449185 -0.36219007 0.054267745 0.82787699 -0.40519547 -0.62092608 -0.060332064 -0.14320308 -0.10474225 -0.049848832 -0.067856573 -0.015525094 -0.31438026 -0.00087354041 -0.75258476 -0.099507064 -0.46353176 0.091424696 0.058535151 0.87098539 -0.34314618 -0.11488101 0.61571527 -0.51753849 -0.77884704 0.0079565831 -1.0089437 -0.055024028 0.13494349 0.0446559 -0.33191609 0.038472172 0.27482054 0.30683461 -0.21285988 -0.2442558 -0.15711208 -0.81591892 0.11255481 -0.15401612 0.50508285 0.31201813 -0.36294425 -0.1265385 0.19446176 0.70614803 0.24608411 0.10028173 0.9657101 -0.32411459 -0.24291494 -0.48830098 0.82539111 0.50145042 -0.62817961 -0.075204134 -0.61791372 -0.088895783 -0.21210115 -0.86939007 0.47049731 0.45364431 0.40008512 0.67959559 -0.16730195 -0.17142428 -0.18758172 -0.49370682 0.53317887 -0.34013212 -0.8413108 -0.30467781 0.045451451 -1.0697682 -1.1054153 0.14953811 0.18859591 0.9912014 0.2783398 -0.067238912 0.17808221 0.96959949 0.29742232 0.49213979
from 0.024426883 0.15666819 -0.064987995 0.084873885 0.091254577 0.01936149 0.19696479 -0.51547927 0.23973155 0.63239491 -0.028124029 -0.33812508 -0.60371655 -0.036500841 -0.016310737 0.26372653 -0.27533898 -0.23349658 0.19829609 -0.42903936 -0.48279384 0.13924719 0.62923461 0.56168807 -0.13681218 -0.18495552 0.012113995 -0.29454318 -0.37522885 -0.2929067 -0.27877805 0.075700246 -0.21958616 0.01244918 -0.033844456 0.088787213 -0.28426215 0.26796317 -0.098582797 -0.35623789 -0.17891251 -0.31771165 -0.58596945 0.30228153 0.22174431 -0.027118517 -0.08321996 0.14483869 0.035104789 0.76161677 0.040653232 0.16834158 0.038044035 -0.36609015 -0.048213162 -0.27778095 0.45066375 -0.47997192 -0.1739957 -0.17843787 -0.31758979 0.24651216 0.36370081 -0.14182369 0.48076552 -0.46299666 -0.30600342 0.29472035 0.86359739 -0.28448886 -0.57219124 0.15624979 0.20359385 -0.13670179 -0.46211445 -0.038823839 0.51429415 0.48338407 0.29976174 0.21026494 -0.30173075 -0.049670167 0.24372947 -0.10920741 0.0684653 -0.069973513 -0.60774642 -0.34276479 0.89692605 -0.11341116 -0.19270238 0.089817271 -0.59196836 -0.086982489 -0.22690555 -0.1830074 -0.24233775 0.25788701 -0.11990795 0.19118398
pay 0.43076524 0.50542498 -0.022357687 -0.44552585 -0.024277754 -0.054512601 0.58442932 -1.2040366 -0.67483664 0.4605473 -0.41761208 -0.51173168 -0.28210282 -0.59095144 0.47178504 0.28850302 -0.18440191 0.33329996 0.35580891 -1.0301363 -0.22299187 0.12611236 0.31725833 0.068209209 -0.20830373 -0.093293749 -0.10762856 0.14828449 -0.20224144 -0.37214634 0.026160777 -0.072468504 -0.4840636 0.33930141 0.36328408 -0.24066603 0.34121394 0.44770023 0.47648945 -0.20565191 0.29662475 -0.2073535 -0.043278471 0.40809473 -0.14858715 0.24743748 -0.34238842 0.42159626 0.24118014 0.072428688 -0.13128696 -0.17546093 0.11311907 -0.31272826 0.070201837 -0.19279768 0.46026674 -0.22573654 -0.012143694 -0.37411049 -0.15398642 0.27327988 0.34301654 0.38449684 0.10997839 0.13025483 -0.10451058 -0.37341031 0.84287775 -0.31488818 -1.2629902 0.0050730049 0.22520524 0.0827609 -0.45893306 -0.1398447 0.62463534 0.4342314 0.72837818 0.20796417 -0.1967413 -0.0053918837 0.059577402 -0.19528842 -0.18547009 0.47528708 0.009134056 -0.53256094 0.90131575 -0.93763214 -0.62220919 0.17136633 -0.52100676 -0.052808445 -0.23395033 0.18642205 -0.09165062 1.3078798 -0.19231121 -0.084584922
out 0.38628241 0.35553658 -0.13205206 -0.028793769 -0.39460641 0.073668897 0.06590344 -0.63846457 0.15758121 0.45893204 -0.32116452 -0.17015025 -0.42674163 -0.3080264 0.19420248 0.40378201 0.040042721 -0.33275133 0.16515981 -0.16809952 -0.39541304 -0.10899446 0.45640415 0.27237415 -0.018871397 -0.06391906 -0.054957412 -0.18005383 -0.2562122 -0.20351276 -0.41001779 0.079525664 -0.18054025 -0.025079738 -0.066966526 0.25265816 -0.24053733 0.10858518 0.088754743 -0.35871354 -0.34258702 -0.14380102 -0.60305518 0.091455847 0.20925808 -0.10922886 -0.0093387337 0.12547146 0.18490848 0.51773083 -0.059841201 -0.018718254 0.011110598 -0.47634107 0.081408478 -0.113561 0.40465194 -0.16798647 -0.15012051 -0.17989734 -0.12143215 0.26266283 0.18321173 -0.060450319 0.46550936 -0.33013862 -0.20758283 -0.062727831 0.84530354 -0.061969273 -0.37928769 -0.11347279 -0.10207363 -0.045536138 -0.48869306 -0.26094517 0.38011411 0.44650075 0.30939066 0.37347215 -0.24017668 -0.13326761 0.015087664 -0.30055678 0.31879187 -0.16077916 -0.68214989 -0.31120697 0.5242092 -0.40388465 -0.47895613 -0.056524403 -0.28549665 0.3562097 0.048023816 -0.13670829 -0.097729601 0.53495854 -0.15331161 0.29868478
are 0.50553209 0.49763441 -0.24701083 0.056117598 -0.60565245 0.1795367 0.1910208 -0.56784046 -0.061190419 0.63289595 -0.20453304 -0.12426768 -0.46677032 -0.72302818 -0.064457431 -0.14294307 -0.38585591 -0.2383887 0.43637034 0.18194593 -0.48661709 -0.15338755 0.36515319 0.18081915 -0.069558896 -0.45161554 0.15516675 0.080008358 -0.27812323 -0.1228586 -0.35320255 -0.29751134 -0.17997347 0.23737054 0.21366219 0.42518678 -0.49674803 0.27838778 0.28383622 -0.35202894 -0.22347979 -0.45527852 -0.60638636 0.20806973 -0.0014043482 0.12310943 -0.52574193 0.0635176 0.011850132 0.12986189 -0.093551472 0.10021071 -0.29743001 -0.6515528 -0.14463328 -0.26694259 0.26013669 -0.28151134 -0.10685263 0.30396566 -0.0032975662 0.56133288 0.33981735 0.09273351 0.50669062 -0.33282074 0.034617469 -0.11547882 0.78947449 -0.18472968 -0.58686388 0.25742564 -0.018957457 0.23433024 -0.42740011 -0.5115121 0.65223688 0.77738982 0.59176141 -0.12884893 -0.36026457 0.22757693 0.19591877 -0.040612523 0.15175878 0.10887951 -0.44697791 -0.3814359 0.64111239 -0.28206074 -0.25039926 0.30556545 -0.16359523 -0.12660208 -0.17479132 -0.20417526 -0.10725769 -0.021430852 0.27218699 0.3543576
can 1.0761465 0.77088529 -0.10692596 -0.10650941 -1.1028128 0.32694414 -0.00060839514 -0.83380717 -0.27529013 0.066753209 -0.61920625 -0.23511337 -0.45454231 -1.1662464 0.66067833 0.14215977 0.14553633 -0.34130609 0.026557036 0.45034903 -0.4310388 -0.47916874 0.020266108 0.037415117 0.21298493 -0.097667567 -0.010727637 0.25541356 -0.41652685 0.078389987 -0.45051658 -0.13443011 -0.076718003 0.37197256 0.084400333 0.76522321 -0.19435523 -0.12520026 0.5604192 -0.53576082 -0.71314752 -0.10541487 -0.92086643 0.19432332 0.19520938 -0.085912861 -0.31538504 0.3011916 0.32403496 0.20122145 -0.24586101 -0.20224951 -0.28167292 -0.84517485 0.046062849 -0.22454734 0.45379794 0.0208039 -0.39127818 0.27413756 0.14483079 0.75651121 0.10351545 -0.0060130642 0.45977202 -0.37194297 -0.31695351 -0.65181464 1.1490983 0.21064708 -0.57453692 -0.34536871 -0.28467181 0.14410233 -0.39375445 -1.0913745 0.20175526 0.63935882 0.36061972 0.14349884 -0.30183837 0.008025907 -0.25373968 -0.17907414 0.4610981 -0.20493977 -0.99276549 -0.29870105 0.2877312 -0.87278891 -0.91728234 0.038654637 -0.060732283 0.69010258 0.14878373 -0.0091901179 0.092177436 0.87891191 -0.00369499 0.51013136
just 0.47341451 0.40315202 -0.029227853 -0.085886672 -0.38356104 0.05624852 0.14829765 -0.66560733 0.021340348 0.25463521 -0.32038164 -0.23504266 -0.53139323 -0.38983294 0.3708421 0.36616802 0.060937569 -0.27972254 0.071264639 -0.11140043 -0.37368104 -0.10313388 0.34208208 0.27385575 -0.012580259 0.037389923 -0.063796863 -0.087270863 -0.31629854 -0.17612895 -0.37804097 0.07635095 -0.24460177 0.041441705 -0.05592981 0.32127133 -0.098664165 0.039804421 0.22209829 -0.36247098 -0.42965773 0.0052431426 -0.58542621 0.21309273 0.21922728 -0.066804402 -0.0099310847 0.22075972 0.20232309 0.58166301 -0.060910262 -0.14895423 0.010806529 -0.46198842 0.064336397 -0.17408766 0.46104783 -0.14182307 -0.18089184 -0.17884411 -0.13252704 0.33772138 0.20910212 -0.039764874 0.48264688 -0.33861241 -0.34920335 -0.13796911 0.93815625 -0.00018227794 -0.47994527 -0.18670887 -0.11202228 -0.096890248 -0.41544208 -0.37568131 0.28942227 0.35782793 0.26585802 0.42158848 -0.16163039 -0.15995529 -0.079238184 -0.31113204 0.25248849 -0.17887747 -0.77125603 -0.32411042 0.54758018 -0.50041115 -0.67067075 -0.042838968 -0.30864921 0.40863904 0.041057978 -0.12470525 -0.1357837 0.7575317 -0.15374075 0.29537761
year -0.27881104 -0.050036579 0.11571019 0.15477109 0.76410908 -0.21710974 0.25031912 -0.45806819 0.25146374 0.53060329 0.38660777 -0.62991101 -0.87887156 0.34416294 -0.16038087 0.34858805 -0.3087965 -0.27401641 0.20652369 -0.80698109 -0.20317942 0.33095098 0.96072602 0.63654095 -0.18162787 -0.035166401 0.015941037 -0.32016706 -0.35214162 -0.56686819 -0.074156098 0.10056601 -0.16199739 0.018752472 -0.28400862 -0.27628732 -0.14772271 0.26523972 -0.48761827 -0.22245586 -0.18841571 -0.2527239 -0.36646831 0.46754807 0.16208601 -0.0050614737 0.2782076 0.25031093 -0.050185405 0.88976043 0.080339819 0.16419075 0.12007024 -0.33434153 -0.085891552 -0.26497978 0.51959538 -0.63864863 -0.052859247 -0.28804731 -0.59081537 -0.149891 0.26440606 -0.28743276 0.29209548 -0.42939544 -0.35321099 0.60620797 0.91486776 -0.69697404 -0.38805437 0.1346418 0.40489507 -0.28418386 -0.49280232 0.16668619 0.26849228 0.47480142 0.18488908 0.21121436 -0.45106325 -0.20345917 0.32083422 -0.065131769 0.0066795871 -0.11441346 -0.67138517 -0.49909738 1.3648659 0.48896027 0.00057783292 -0.21311189 -0.66220504 -0.34119993 -0.21902411 -0.22486851 -0.70332271 0.10526208 -0.4644596 -0.0028518126
money 0.52735388 0.45663786 -0.0018205971 -0.14582963 -0.44480795 0.11908861 -0.0074360822 -0.61792558 0.044368658 0.1590444 -0.41185543 -0.15879211 -0.37417656 -0.36100554 0.36883631 0.47414696 0.11007819 -0.30200365 -0.046803292 0.01114871 -0.32418874 -0.19614257 0.21862203 0.14992979 0.038046677 0.073064089 -0.18913206 -0.1210257 -0.3204644 -0.17642818 -0.49863642 0.11350924 -0.19123226 0.011302661 -0.11395627 0.38554287 -0.094452173 -0.066299647 0.27511099 -0.31802416 -0.55006129 0.054034907 -0.60994643 0.13207884 0.24852808 -0.21333337 0.031881176 0.096153617 0.31153899 0.5824039 -0.029128645 -0.11184564 0.081167608 -0.47742558 0.21850173 -0.11588755 0.49869233 -0.063364744 -0.27632412 -0.35644656 -0.10449771 0.22215436 0.051312312 -0.089525335 0.54804152 -0.3500956 -0.31502232 -0.24692258 0.86409247 0.14996955 -0.5229829 -0.2293338 -0.19056866 -0.16252261 -0.49780011 -0.38292992 0.24015099 0.36589107 0.29078114 0.58976835 -0.18195164 -0.22556682 -0.11748108 -0.35059363 0.32789364 -0.24835053 -0.9106642 -0.25292253 0.34151837 -0.73653495 -0.78473115 -0.067561142 -0.34467632 0.77045739 0.14032042 -0.0099762427 0.090632454 0.89245051 -0.15484366 0.22494242
get 0.7429505 0.49589968 -0.034985427 -0.10013595 -0.49448451 0.00043101318 0.12603806 -0.79746479 -0.23600933 0.16955239 -0.46378136 -0.23632884 -0.4340952 -0.46807474 0.45611742 0.31807581 0.12284629 -0.06846948 0.037051182 -0.19376563 -0.23017505 -0.20569871 0.12946963 0.011929053 0.021729194 0.048470363 -0.042322341 -0.04554097 -0.26565808 -0.12850313 -0.47973534 -0.014932661 -0.23274767 0.22158752 -0.024139341 0.33874786 0.031228172 -0.070113815 0.35182345 -0.37340757 -0.4539476 -0.095673218 -0.53919166 0.12480424 0.16419959 -0.0003863356 -0.12361544 0.24387345 0.29082349 0.36389139 -0.19333979 -0.084664822 -0.1026171 -0.53967583 0.10400526 -0.12352448 0.53235859 -0.064528421 -0.32121882 -0.22556622 -0.10748421 0.44796753 0.12051261 -0.043560024 0.49554187 -0.24481237 -0.19001846 -0.36860058 0.9013561 0.12600765 -0.75357109 -0.070531949 0.0015726105 -0.12670311 -0.41850379 -0.43175808 0.24363393 0.29762572 0.40548465 0.56853235 -0.2576561 -0.093319625 -0.11779476 -0.28799456 0.28044143 -0.18131603 -0.67017287 -0.31105834 0.54371661 -0.87076741 -0.72052711 -0.033258811 -0.34700358 0.59946418 0.067908585 0.16014931 0.016327329 0.96772116 -0.15239719 0.24764958
an 0.10421535 0.30977282 -0.079416931 0.0416147 -0.15639205 -0.0072155083 0.05612845 -0.59222817 0.33906785 0.46124902 -0.16581331 -0.13661435 -0.56193191 -0.21456887 0.16060106 0.44208911 -0.13137625 -0.34675401 0.19945827 -0.14508742 -0.56116396 0.0073050749 0.6433925 0.57304078 -0.18037169 -0.092790097 -0.031794839 -0.24839005 -0.2913394 -0.23422365 -0.29670957 0.037822835 -0.23134892 -0.050547317 -0.062601604 0.17508101 -0.32411298 0.23016791 0.034526657 -0.25935268 -0.27795306 -0.21736065 -0.7019791 0.3366639 0.17873242 -0.039666563 -0.065701656 0.089950889 0.027328655 0.76507843 0.10970588 0.042861946 0.12121573 -0.37140444 -0.0086819427 -0.19046107 0.42830256 -0.38813666 -0.012502563 -0.250209 -0.25888216 0.30398133 0.2928344 0.0054637734 0.48625255 -0.37482047 -0.34247461 0.202168 0.87569129 -0.24856384 -0.46293369 -0.041822284 -0.0746269 -0.11203199 -0.45735037 -0.095217362 0.55484533 0.3560966 0.3422249 0.30031434 -0.23012246 -0.063987814 0.12913384 -0.25701016 0.11674206 -0.061468203 -0.59381676 -0.35205746 0.62732667 -0.14518166 -0.51260912 0.22252481 -0.39509034 0.10168832 -0.11360987 -0.36536211 -0.15192358 0.38562536 -0.1007778 0.17653804
should 0.92696631 0.72747207 -0.074564271 -0.16398507 -0.94635838 0.28687346 0.09762457 -0.81185025 -0.37908739 0.043698423 -0.50232089 -0.31683487 -0.37993771 -1.2490143 0.63760197 0.097383529 0.12943809 -0.3345015 0.018481309 0.21430616 -0.42038193 -0.47541603 0.11871037 0.068266951 0.17453994 -0.11157665 -0.016073305 0.27251944 -0.36863312 0.098026842 -0.27691409 -0.10367704 -0.043361921 0.37201679 0.18525371 0.52378601 -0.070275158 -0.026613731 0.58270675 -0.47705266 -0.50238317 -0.024369402 -0.7777527 0.26509872 0.13794459 -0.10672624 -0.22725321 0.48171473 0.26036501 0.21440643 -0.17648189 -0.26324779 -0.15157071 -0.73472381 0.030011337 -0.21007493 0.4023661 -0.025030274 -0.34582075 0.25017577 0.069700412 0.65343744 0.12390665 0.067941271 0.25910023 -0.32552555 -0.37882987 -0.68465024 1.1047639 0.15407205 -0.60710555 -0.48337394 -0.26453868 0.14578342 -0.42682824 -0.98920161 0.13221096 0.61031711 0.43149716 0.018861979 -0.19225331 -0.043414436 -0.29033878 -0.11463067 0.42165181 -0.032264691 -0.946877 -0.28173018 0.37734056 -0.7278055 -0.97478485 -0.0053703478 -0.1020605 0.50938952 0.084240139 0.010568063 0.041811928 1.0414448 -0.13678758 0.31684625
will 0.61335689 0.5185923 -0.16157049 0.035723664 -0.50166631 0.052980781 -0.12250391 -0.52474213 0.043115869 0.23431535 -0.27553815 -0.37757447 -0.30535963 -0.76818228 0.18760063 0.25243953 -0.011170923 -0.44559011 0.049134541 -0.099407002 -0.43925944 -0.37754896 0.54091108 0.22515139 0.1271878 -0.13571435 0.0056036361 0.042292774 -0.36230776 -0.02256334 -0.33792293 0.09506736 0.052776802 0.21931249 -0.016901251 0.13130631 -0.17378296 0.014142388 0.12852623 -0.41693985 -0.39807984 -0.13398091 -0.79754198 0.21199945 0.29209232 -0.41677642 0.1204075 0.53780037 0.22698495 0.40367422 -0.042783674 -0.021204572 0.0096861394 -0.49812606 0.10146682 -0.11074077 0.44239336 -0.076237738 -0.25386158 0.11614031 -0.12634268 0.23827527 0.10306949 -0.17532952 0.12443225 -0.35575587 -0.20252568 -0.31513926 1.0535414 -0.16145903 -0.42253655 -0.49341598 -0.18466035 0.087926976 -0.62782294 -0.54050565 0.16675258 0.66080093 0.40011731 0.16480562 -0.19403037 -0.24389093 -0.0089483391 -0.14685699 0.47179687 -0.059241701 -0.98549074 -0.27405486 0.50569016 -0.37152117 -0.65212512 -0.22335067 -0.41139534 0.40952957 -0.077797353 -0.066684954 0.030997047 0.69115418 -0.33003414 0.26589587
they 0.55390227 0.41902593 -0.18635224 -0.045049094 -0.51681823 0.066628255 -0.051720668 -0.56977361 0.3133271 0.60009915 -0.50146949 0.039949939 -0.4749079 -0.11752205 0.097415276 0.57895368 0.023193862 -0.33256721 0.10524909 -0.020553131 -0.43918455 -0.18053356 0.39766693 0.26391643 -0.08292266 -0.077929407 -0.064192712 -0.23607773 -0.29393953 -0.18104053 -0.60927153 0.22771627 -0.29292458 -0.12171623 -0.1500991 0.32873863 -0.33901313 0.086878374 0.10192363 -0.28040373 -0.45965022 -0.013746638 -0.73518139 0.029917812 0.36928958 -0.27262816 0.034916639 0.05315619 0.27341142 0.62562907 -0.066866055 -0.030451737 0.016256282 -0.43618178 0.1752844 -0.10593308 0.51724207 0.033103224 -0.14709398 -0.24129926 -0.14795922 0.20738798 0.19342479 -0.13827789 0.70972896 -0.38292438 -0.2250769 0.02341955 0.80369115 0.047566228 -0.42392457 -0.063550584 -0.23327409 -0.18101446 -0.46245903 -0.14302303 0.52680355 0.3273361 0.19431858 0.64557731 -0.079867817 -0.34119421 0.091973841 -0.51886648 0.32392278 -0.37771827 -0.7185303 -0.26824954 0.34631732 -0.61559665 -0.56483871 -0.061761487 -0.33407986 0.69239748 0.10328186 -0.11932293 -0.0059925723 0.55164909 -0.038648698 0.43586132
any 1.1276139 0.87491161 -0.46774727 0.086024903 -1.5629686 0.22113571 -0.046084784 -0.85428005 -0.1429649 0.49309066 -0.56882948 0.35233867 -0.47479776 -1.1495525 0.19351415 0.076595642 -0.20080632 -0.41077521 0.41539997 0.93204868 -0.64425272 -0.66647667 0.17375223 -0.051261697 -0.16501626 -0.48482642 0.13596657 0.058776379 -0.26227653 0.035041213 -0.62834632 -0.39449805 -0.24824542 0.22462624 0.18683945 0.85014462 -0.71046788 0.17676969 0.55058926 -0.44831273 -0.49666518 -0.28902358 -0.97482717 0.033232778 -0.162045 0.19058087 -0.75512809 -0.056970436 0.11463179 -0.049536549 -0.10413138 -0.12028951 -0.32132319 -0.85220927 -0.16480528 -0.24496637 0.1375086 0.12508909 -0.033063553 0.25807089 0.31606537 0.86924893 0.40769085 0.33424267 0.7263152 -0.24132378 0.084211297 -0.40904909 0.74622309 0.081161231 -0.57969463 0.17317589 -0.66229761 0.34227958 -0.26147941 -0.90281439 0.82347655 0.77595359 0.61100787 0.043700293 -0.29467589 0.22058855 0.026192388 -0.29654348 0.4015784 0.043882493 -0.48541734 -0.38690245 0.072862491 -0.6106475 -0.76446092 0.51529992 0.3427498 0.27696797 -0.0014032961 -0.42103648 0.17009765 0.22749744 0.55763131 0.64029419
up 0.21911642 0.27895552 -0.03666896 0.010308369 -0.048972253 -0.040520892 0.14508449 -0.55150855 0.20396355 0.45124689 -0.15833154 -0.27405745 -0.59230971 -0.10496451 0.12288285 0.35430551 -0.1557674 -0.21463747 0.11336914 -0.32490888 -0.44420591 0.034935724 0.55115628 0.44029546 -0.084531181 -0.051858302 0.012561849 -0.26572362 -0.30294487 -0.21799776 -0.32932067 0.061974313 -0.19142102 0.016769409 -0.11046034 0.12407274 -0.21695709 0.11489158 -0.011335365 -0.27806652 -0.29649377 -0.17648852 -0.57204503 0.27695018 0.24875341 -0.044412605 0.024090925 0.20182151 0.13168198 0.69542867 -0.0079796994 0.028664591 0.047653522 -0.36396515 -0.0027377724 -0.19940844 0.48981449 -0.33741587 -0.1506158 -0.21016654 -0.29353088 0.27585486 0.21248011 -0.12370043 0.44392025 -0.39838228 -0.3139725 0.15781048 0.861817 -0.21562627 -0.55493599 0.015619767 0.11089551 -0.1798121 -0.43916038 -0.073288471 0.38652244 0.35129744 0.27634931 0.37911934 -0.25777981 -0.092846952 0.11897954 -0.20775919 0.12070391 -0.11253477 -0.64418751 -0.30815506 0.78421521 -0.3109099 -0.42437419 -0.0086707594 -0.53935277 0.19315279 -0.15757805 -0.11921263 -0.21935466 0.50094682 -0.14646749 0.23940596
all 0.42390019 0.41505128 -0.20557173 -0.085642889 -0.43830532 0.029849898 0.21419595 -0.74115598 -0.12080211 0.5726651 -0.31766149 -0.15107448 -0.38716772 -0.42216462 0.12698773 0.21231204 -0.14702331 -0.20076586 0.30023402 -0.24248552 -0.40413684 -0.092817016 0.44421226 0.22225773 -0.11398813 -0.17572212 0.063776903 -0.11103842 -0.18551445 -0.213787 -0.30098733 -0.070203573 -0.28347549 0.10577539 0.18589911 0.18321663 -0.22640075 0.3309949 0.19737642 -0.3185066 -0.13742504 -0.23708302 -0.4430708 0.13182205 0.074424557 0.12359494 -0.27171695 0.1788691 0.10424425 0.32583395 -0.085413769 -0.071556449 -0.0026361614 -0.39827576 -0.04616842 -0.22127101 0.3026323 -0.15033843 -0.081279546 -0.13031138 -0.093277536 0.35158044 0.39029273 0.14627232 0.40000454 -0.20314626 -0.095360339 -0.021906264 0.73619306 -0.17313673 -0.57618421 0.084354997 -0.081991144 0.1047085 -0.36938933 -0.24596253 0.64801508 0.48887104 0.44745868 0.20221518 -0.20471065 -0.030586295 0.11654668 -0.18977173 0.1602339 0.098966241 -0.37143114 -0.3937138 0.54022914 -0.49175268 -0.40383711 0.12289793 -0.26982349 0.037206165 -0.11231697 -0.19235319 -0.092602849 0.50752234 0.011345109 0.21618135
how 1.318137 0.82200432 -0.13541521 -0.15692957 -1.3799175 0.20849863 -0.096543714 -0.87467104 -0.24559693 0.10722552 -0.72294044 0.095278785 -0.52417594 -0.78814369 0.63735878 0.49961707 0.17346449 -0.39616862 -0.022940831 0.70693874 -0.41906413 -0.57311499 -0.091337167 -0.066650763 -0.010755858 0.097199365 -0.16341269 -0.05870514 -0.34424812 -0.072496757 -0.72762108 -0.019206218 -0.50823009 0.041973058 0.02790677 0.84150153 -0.22519079 -0.23210715 0.61929828 -0.56947511 -0.84629756 0.11476024 -0.99648434 -0.018215237 0.17547058 0.038616147 -0.2530084 0.11015983 0.36898291 0.42354277 -0.24207503 -0.27249384 -0.13725671 -0.80145419 0.14394414 -0.11180726 0.61951917 0.29058459 -0.41706431 -0.26629305 0.19615129 0.70195049 0.15760483 0.082204819 0.9382987 -0.39897296 -0.40614948 -0.5367074 0.99424452 0.53943998 -0.66378123 -0.21854566 -0.55640697 -0.12563607 -0.31084281 -0.89529479 0.2734358 0.52789563 0.40697834 0.83898115 -0.20195943 -0.222545 -0.25887758 -0.55336916 0.59026349 -0.34637502 -1.0142094 -0.30890599 0.10791074 -1.1735977 -1.2099159 -0.00015386181 0.1090691 1.0913033 0.35470325 0.04958247 0.16741304 1.1714662 0.17928074 0.47147822
you 1.4590694 0.8402018 -0.48951948 0.07447166 -1.6556315 0.1892605 -0.23727086 -0.86112738 0.037090305 0.65045935 -0.64410162 0.44492227 -0.53256029 -0.90162653 0.048967101 0.25344259 -0.28293124 -0.55618423 0.36350584 1.1987063 -0.62440258 -0.69099772 0.14232343 -0.094425991 -0.34934652 -0.42704019 0.14912313 -0.066157229 -0.28976464 0.071579449 -0.77069026 -0.30921507 -0.48979652 0.12115189 0.019747574 0.97849 -0.8014186 0.045586359 0.50775522 -0.41877007 -0.71240807 -0.20077354 -1.1548116 -0.10157321 -0.11544498 0.025123918 -0.63666415 -0.091460593 0.24892853 0.046992227 -0.20142333 -0.16033892 -0.32076392 -0.8968842 -0.14273947 -0.21415573 0.21775973 0.33822268 -0.044718113 0.077429309 0.3168703 0.81270993 0.5521096 0.31549099 0.90954453 -0.19597498 0.11915244 -0.35162625 0.75152504 0.31329164 -0.53532636 0.10649193 -0.87398946 0.27791384 -0.16299102 -0.78504914 0.85542321 0.73968983 0.52901936 0.43192172 -0.12115136 0.038629495 0.040884893 -0.44992942 0.49440309 -0.11193606 -0.67081034 -0.34124473 -0.17757915 -0.78657138 -0.85511369 0.39663905 0.47806081 0.68035173 0.065838732 -0.40894818 0.11203095 0.28021362 0.55406749 0.77501112
years -0.53731817 -0.071590684 0.12667082 0.19058169 0.78059047 -0.28629023 0.47479996 -0.55091321 0.4057236 0.70999509 0.37217453 -0.43039531 -0.88594097 0.41906965 -0.18820997 0.40036765 -0.44915575 -0.092580989 0.44195715 -0.93817395 -0.34409136 0.26967806 1.1745344 0.78088826 -0.23775381 -0.22688128 0.022937622 -0.27175114 -0.29277849 -0.61331505 0.068815045 0.0547463 -0.22350788 -0.035687208 -0.26771504 -0.40390757 -0.22370361 0.41947076 -0.55699271 -0.054576892 -0.05801481 -0.34305087 -0.28291062 0.63969392 0.11915088 0.088206552 0.26497036 0.16142714 -0.16089588 0.8410778 0.14129409 0.056996163 0.30824295 -0.34241858 -0.15732367 -0.37457088 0.44620588 -0.67318439 0.13646941 -0.21023136 -0.7006532 -0.15431376 0.32339281 -0.19354357 0.27248019 -0.30960405 -0.32354739 0.75609982 0.85957408 -0.94737077 -0.49372745 0.14029559 0.33245009 -0.20314834 -0.50718319 0.30752888 0.64316291 0.49389368 0.16725393 0.098901786 -0.43939802 -0.19386707 0.41401204 -0.12657444 -0.16057561 -0.0023703792 -0.45534754 -0.60905886 1.4661813 0.66214812 0.049527682 0.049410958 -0.64190727 -0.61501342 -0.42235476 -0.43322253 -0.73648775 -0.074376389 -0.27847651 0.062120732
off 0.35414141 0.25733465 -0.25952497 -0.62112415 -0.024275044 -0.28390202 0.97136247 -1.2714366 -0.82873565 1.1630152 -0.80402422 -0.40447837 -0.12046765 -0.43868646 0.24270083 -0.11983086 -0.11889064 0.065685153 0.4103772 -1.8409457 -0.38634238 0.11348458 0.68384397 0.26366997 -0.0012491457 -0.11016364 0.25250491 -0.19299206 0.20066644 -0.18933791 0.0066926326 -0.2955088 -0.56906497 0.23952654 0.75453532 -0.32531947 0.39773107 0.82575136 0.42654872 -0.4814527 0.49941137 -0.027504478 0.3651354 0.067635491 0.27451795 0.38178524 -0.4297927 0.81023955 0.19774814 0.35268095 -0.27073327 -0.32975999 0.052050315 -0.085411794 -0.10038913 -0.31256184 0.29831776 -0.16171014 -0.29057887 -0.40988994 -0.39436001 0.34534591 0.82357383 0.55578494 -0.037851781 -0.094897114 0.12926114 -0.23127681 0.89893168 -0.23643918 -1.1525321 0.1933725 0.39571774 0.40523514 -0.50055581 0.31993473 1.0815139 0.20243904 0.72477788 0.26726395 -0.0020619698 -0.13488385 -0.15655704 -0.21622846 0.036102828 0.73969227 -0.030038984 -0.48632261 0.8551237 -1.4241556 -0.27448553 -0.13736552 -0.85684949 -0.50366479 -0.58482611 0.15171954 -0.14767703 1.5595561 -0.56716037 0.13234583
some 0.60843027 0.56757802 -0.23957871 -0.024124986 -0.86854744 0.096172653 0.017105471 -0.72333944 0.10897096 0.40395287 -0.44057208 0.063343637 -0.47261438 -0.52235466 0.26284322 0.38134781 -0.064208336 -0.34036189 0.19841018 0.18678772 -0.56248534 -0.36837763 0.35934153 0.23702976 -0.13463254 -0.13596295 -0.023631178 -0.15222593 -0.27340528 -0.13046557 -0.50250328 -0.048072882 -0.23570623 0.030829251 -0.061844774 0.46081093 -0.41023129 0.12800165 0.2197029 -0.31515664 -0.47820443 -0.13421786 -0.82131279 0.1024695 0.091559462 -0.051024754 -0.26598853 0.022714876 0.16827482 0.44566572 -0.026541196 -0.089488469 -0.052684285 -0.50160241 -0.012163773 -0.19113892 0.35633716 -0.015296437 -0.061258428 -0.17145157 -0.023469009 0.51152635 0.23314859 0.16235684 0.5939014 -0.31822327 -0.21443917 -0.14876172 0.74997145 -0.020576425 -0.51994717 -0.053015217 -0.32059219 0.015222609 -0.37962103 -0.35602489 0.63723505 0.42834756 0.3025789 0.36090231 -0.16739805 -0.027155824 0.017038889 -0.3504155 0.26553679 -0.10786915 -0.5805524 -0.30639479 0.23093233 -0.53763092 -0.66171974 0.24868993 -0.097800992 0.35085469 -0.0082401969 -0.26567608 0.080327034 0.53449512 0.12970617 0.40619147
now 0.30493709 0.32621485 -0.052203674 -0.129117 -0.30699489 0.012464135 0.19631718 -0.63087463 0.063830934 0.31446883 -0.27046284 -0.20096143 -0.55887806 -0.26640618 0.32490101 0.40185717 0.020494144 -0.27211431 0.09069299 -0.2332999 -0.43009841 -0.0062185084 0.40088823 0.35340729 0.023944521 0.068766177 -0.10583063 -0.12184414 -0.29195771 -0.31346637 -0.34954554 0.13642934 -0.2522524 -0.0327284 -0.095403239 0.17989519 -0.097943224 0.16918406 0.033085942 -0.29720184 -0.38531968 0.03478168 -0.4822779 0.23316757 0.20130655 0.0025627562 0.081097603 0.18037395 0.11677164 0.64277309 -0.050882354 -0.16957749 0.079913951 -0.39549443 0.050622601 -0.22113125 0.43757585 -0.17732298 -0.16837807 -0.18255651 -0.2059622 0.24266765 0.23826472 -0.0015246404 0.51529539 -0.38921145 -0.40936285 0.0039186301 0.81239349 -0.065042153 -0.40115103 -0.18948175 -0.1012257 -0.13030419 -0.35009119 -0.29320857 0.39271751 0.36169627 0.21259907 0.43566599 -0.16621439 -0.2174477 -0.036275029 -0.31650767 0.13014418 -0.1821246 -0.68095267 -0.37516215 0.64819461 -0.34407645 -0.56624198 -0.069771424 -0.32196471 0.24278983 0.019733809 -0.15864904 -0.16792688 0.72344959 -0.10919046 0.24953067
dont 1.1123258 0.8087461 -0.014234796 -0.34282574 -1.2062795 0.32748789 0.19173071 -0.92688239 -0.27024254 -0.054438967 -0.76862168 -0.15426989 -0.43874913 -1.0353446 0.84128994 0.33916077 0.22257413 -0.46785742 -0.03363933 0.37342438 -0.43409508 -0.40080371 -0.091267787 0.090566993 0.1974338 0.016789407 -0.061440874 0.23130676 -0.37776944 -0.0068287258 -0.52957058 0.070489317 -0.2413588 0.20526122 0.050835289 0.8368032 -0.13914068 -0.05582843 0.68109697 -0.41290554 -0.75813144 0.21667138 -0.74354523 0.17010203 0.21172644 -0.054994028 -0.22185636 0.23912475 0.40211535 0.39991382 -0.22023523 -0.44173047 -0.21924789 -0.72822112 0.12203696 -0.23743482 0.49197569 0.14791441 -0.34113255 0.073487177 0.1265174 0.69174093 0.22582835 0.16638711 0.57218558 -0.38742754 -0.56043106 -0.65333474 1.1246523 0.37189716 -0.46474409 -0.45113483 -0.44628209 0.057741549 -0.33437595 -0.97903126 0.15579571 0.42910123 0.15130158 0.42560464 -0.095317811 -0.11659431 -0.32739183 -0.46343994 0.39455822 -0.32266769 -1.086632 -0.3493419 0.24452302 -0.97637618 -1.2103056 -0.023381032 0.0053291139 0.87551242 0.29383767 -0.0074067237 -0.024273878 1.2091165 -0.043116923 0.54450291
like 1.0920016 0.70445424 -0.16755736 0.12936145 -0.94348848 0.01739371 -0.089362763 -0.69662797 -0.099497072 0.007322174 -0.43475854 -0.046297044 -0.58773494 -0.67763799 0.38098708 0.3564125 0.18454687 -0.30877227 -0.026122702 0.52837282 -0.24101338 -0.41033146 0.063057341 -0.1299568 -0.0073844944 -1.8474782e-05 0.04802997 0.017029904 -0.39533198 -0.074572742 -0.68324101 -0.021799853 -0.18846922 0.20653097 -0.10891621 0.61436492 -0.22555578 -0.13279071 0.43341839 -0.4425537 -0.76328647 0.034853678 -0.7483362 0.082089759 0.10725783 -0.099680841 -0.12964581 0.13456586 0.37404588 0.28195134 -0.2060183 -0.23676939 -0.24906825 -0.68370074 0.069467798 -0.015326027 0.48653203 0.11291216 -0.23090275 -0.036380999 0.10910451 0.45343047 0.17976439 -0.063231803 0.66825521 -0.19659066 -0.11556643 -0.48810437 1.028639 0.18883599 -0.52746308 -0.16406544 -0.41504848 -0.072859958 -0.44003719 -0.8311165 0.19485545 0.48133367 0.38792476 0.62267607 -0.20659 -0.1189514 -0.089242868 -0.3961916 0.51913369 -0.42599952 -0.89212763 -0.3491216 0.25728375 -0.75845748 -0.93996245 0.0068187276 -0.074641563 0.87040132 0.1486779 -0.026484197 0.088475689 0.78302193 0.16093391 0.48135337
been -0.451882 0.17004615 -0.057182964 -0.054809481 0.34562299 -0.044752005 0.34326419 -0.75091916 0.49037716 0.36775586 -0.02505862 -0.37487921 -0.87997895 0.32736209 0.013765204 0.42425138 -0.2359214 -0.17233147 0.11962308 -0.88897383 -0.59751356 0.13221551 0.82184309 0.95830727 0.033874366 0.12553507 -0.18570212 -0.31606135 -0.35236523 -0.56141055 -0.26820669 0.17196207 -0.10120153 -0.089235567 -0.27507573 -0.16984802 -0.070487797 0.47176957 -0.54288197 -0.07850074 -0.18336651 -0.00050159008 -0.2774066 0.56122017 0.2434832 -0.032746002 0.27410671 0.19531533 0.03177762 1.1152613 0.30826384 -0.13289009 0.38557535 -0.039150871 -0.020010676 -0.28112066 0.504529 -0.59415412 0.09106034 -0.38148752 -0.44130206 -0.053151727 0.43071783 0.03549869 0.55153221 -0.53059316 -0.63678801 0.60695356 0.78917879 -0.60488564 -0.31506464 -0.057671491 0.22810307 -0.25155514 -0.56046033 0.15194289 0.73645717 0.21506496 -0.043004274 0.29962435 -0.1499245 -0.20681787 0.26584008 -0.1986154 -0.21509542 -0.10752192 -0.61642718 -0.47186521 0.94120055 0.071120277 -0.18708979 0.038197882 -0.83309805 -0.3116172 -0.25485539 -0.28577003 -0.3331179 0.54839003 -0.17339596 0.22374198
loan -0.07080809 0.19274633 -0.22836596 -0.30588943 0.39439628 -0.23326147 0.88182592 -1.1925368 -0.45040575 1.3020182 -0.12113483 -0.62132514 -0.4388254 -0.46352676 -0.14288655 -0.17565255 -0.53010356 0.10757659 0.75519192 -1.3389744 -0.43568155 0.4316324 0.99507123 0.51533836 -0.49223644 -0.45843259 0.24608092 -0.074105807 -0.13285278 -0.25331625 0.15772562 -0.46341318 -0.48722902 0.31890586 0.65294582 -0.34160009 -0.12355551 0.97563136 0.27806625 -0.25669768 0.68305552 -0.51656234 0.040452778 0.34488833 -0.2706517 0.49828184 -0.66320217 0.62018633 -0.12738813 0.23516728 0.035722829 -0.015531092 0.006798787 -0.26034299 -0.24539295 -0.43703702 0.12390948 -0.70136625 0.15169539 -0.19560897 -0.24477053 0.44331035 0.94469434 0.59429932 0.073382966 0.012124467 0.088098422 0.15169626 0.77560639 -0.53509051 -1.1781034 0.4624294 0.3708553 0.49092582 -0.50586933 0.29999515 1.0638208 0.68079293 0.89837831 -0.31907928 -0.2034463 0.15100893 0.29224807 0.051539853 -0.31219691 0.88379723 0.15131791 -0.53616399 1.2587249 -0.31448355 -0.00350945 0.32224911 -0.56812978 -0.98426336 -0.73515308 -0.25051194 -0.47421744 0.56883109 -0.086844154 -0.058531851
account -0.25309193 0.11773327 0.11667165 0.0040248735 0.38337231 0.079692364 0.11566601 -0.36256176 0.36094791 0.43212292 0.087673485 -0.38387868 -0.45844802 -0.044987425 0.09684252 0.34167099 -0.15789784 -0.28861538 0.045653615 -0.3573657 -0.43328673 0.23599243 0.56774455 0.59974062 -0.11188547 -0.17446218 -0.067635469 -0.33108014 -0.40673861 -0.21725015 -0.26135197 0.022417216 -0.099107258 -0.031171439 0.039201897 0.050573278 -0.30442652 0.16924115 0.099699259 -0.2274981 -0.10474 -0.2601634 -0.49011457 0.39801037 0.29444504 -0.114107 -0.047605056 0.11077216 0.078050442 0.87910384 0.21890791 0.19878611 0.17293514 -0.22548725 0.043688823 -0.21430817 0.39921471 -0.65088773 -0.15669708 -0.31542665 -0.42271277 0.23056963 0.24635662 -0.15490846 0.46853545 -0.45175484 -0.41463304 0.25588152 0.88278127 -0.22521557 -0.54196256 0.0713799 0.19484067 -0.25098136 -0.53653145 0.042654518 0.36221844 0.27308109 0.36005259 0.13566935 -0.2018564 -0.025354847 0.18711495 -0.065353371 0.0012920549 -0.090990111 -0.65005118 -0.26433146 0.77855617 -0.19666654 -0.42946053 0.24309382 -0.78071409 0.071488462 -0.16691597 -0.27793115 -0.10753814 0.3291328 -0.25038725 -0.026704343
no 0.062957063 0.39606497 -0.090308748 -0.29069266 -0.42535499 0.16236827 0.47244582 -0.84120762 -0.069305487 0.60715699 -0.44320801 -0.11285122 -0.49025905 -0.58945298 0.34592503 0.12029728 -0.20443721 -0.15782465 0.23230626 -0.56075788 -0.69708121 -0.07422708 0.41451523 0.61574304 -0.059641551 -0.27620733 0.024911951 0.070841402 -0.1494039 -0.20596446 -0.094926298 -0.16888601 -0.18599135 0.064099781 0.24429981 0.17470627 -0.21745266 0.57324153 0.25550756 -0.15150492 0.091353677 -0.062808558 -0.43327969 0.4105249 0.19186378 0.23428473 -0.30440766 0.29513103 -0.063896 0.5235846 0.11072521 -0.11899985 -0.0055806111 -0.29070812 -0.065876782 -0.38831389 0.3081671 -0.35597154 -0.057829533 0.018948248 -0.27191207 0.56458634 0.38602769 0.41746497 0.4316844 -0.47171131 -0.48499963 0.04072661 0.62730461 -0.21644996 -0.66165668 0.10517436 0.041427884 0.0044471985 -0.26321059 -0.19475165 0.81904662 0.29265758 0.25887236 -0.10915308 -0.035218418 0.04499938 -0.021638764 -0.16749229 -0.21298283 0.19508848 -0.26708445 -0.36374038 0.69891739 -0.50092953 -0.48511839 0.38189122 -0.42434907 -0.24145377 -0.25729966 -0.15124086 -0.084800906 0.73872286 0.030242644 0.18296464
car 0.035149172 0.1023128 -0.099213034 -0.19068496 0.28740495 -0.17362922 0.58551967 -0.85200387 -0.11956494 0.81269276 -0.11703199 -0.42839053 -0.54898375 -0.28850055 -0.00069486082 0.075205378 -0.47453341 -0.12107168 0.43531033 -0.87178266 -0.41077763 0.33792496 0.73073351 0.4301596 -0.31341389 -0.34994134 0.16432811 -0.24083838 -0.17024679 -0.37285727 -0.048236374 -0.1384179 -0.36815542 0.12058714 0.26603636 -0.20921327 -0.10734553 0.59533721 0.10697027 -0.27992713 0.28373986 -0.29996568 -0.12452951 0.36484846 0.020142917 0.25239947 -0.28037485 0.3686513 -0.028253095 0.41240862 0.033271298 -0.053000797 0.0027260855 -0.27434394 -0.098838508 -0.33529377 0.26981485 -0.58584744 -0.028836468 -0.19105695 -0.31436458 0.27783206 0.66154695 0.2812646 0.2192511 -0.1309621 -0.12465196 0.18287522 0.80498922 -0.39552566 -0.72541213 0.26910266 0.33997518 0.13394864 -0.41384125 0.13540575 0.68506569 0.48238289 0.6361233 0.023074053 -0.15015538 0.049241733 0.22604007 -0.06787543 -0.15158801 0.44066405 -0.16594447 -0.48534733 1.042454 -0.22916485 -0.20259441 0.1302893 -0.58606231 -0.51496148 -0.40230709 -0.20415466 -0.45252535 0.54934722 -0.23491476 0.020463593
time 0.12310166 0.1023519 -0.02357249 0.032291953 0.17928976 -0.19088982 0.026224688 -0.5339359 0.15957239 0.38022608 0.061192147 -0.40520364 -0.6605677 0.14147529 -0.023073627 0.33338696 -0.061759222 -0.29457432 0.14838831 -0.46147034 -0.34366542 0.1163729 0.66572618 0.44708139 -0.091250107 0.10737587 -0.028143048 -0.29661104 -0.39430615 -0.41035104 -0.34200138 0.12386105 -0.079108261 0.032933526 -0.22152761 -0.090698808 -0.046194267 0.12589148 -0.27281114 -0.25102177 -0.3297655 -0.17628153 -0.48279268 0.22666445 0.22278878 -0.14724404 0.28285903 0.26069224 0.1149233 0.77191848 0.011588579 0.095160298 0.15148167 -0.37100956 -0.058288887 -0.16565447 0.53404963 -0.30676574 -0.15750021 -0.34452671 -0.42173046 -0.0090329377 0.25850508 -0.24946474 0.36359853 -0.39400333 -0.27046016 0.2797946 0.76553577 -0.36547947 -0.40413693 -0.034519222 0.15515877 -0.19769007 -0.48855531 -0.079773106 0.37051278 0.49797398 0.19424552 0.43066499 -0.36995625 -0.27332547 0.18804069 -0.17475931 0.17254102 -0.17401899 -0.74923104 -0.41421038 0.9424994 0.015694441 -0.22453398 -0.14290881 -0.51692617 0.069203302 -0.074242525 -0.14814697 -0.24047348 0.38050124 -0.36130115 0.11661447
had -0.26002029 0.067061536 0.17329633 -0.051430043 0.48842821 -0.045945853 0.31612244 -0.58388072 0.095004782 0.28113347 -0.074508414 -0.67906022 -0.68079185 0.1468146 0.32090691 0.30573604 0.0040519414 -0.077899143 -0.0098762382 -0.99724495 -0.43574005 0.23881365 0.65886456 0.68658364 0.16972147 0.13041893 -0.09160994 -0.17925853 -0.3974773 -0.36213118 -0.18685615 0.20410609 0.040657844 0.1126522 -0.17776638 -0.12992179 0.13741066 0.18519555 -0.22708593 -0.24683429 -0.29651839 -0.1667351 -0.40027243 0.51455617 0.498373 -0.11915126 0.28369457 0.38065073 0.16420563 1.0020322 0.033521064 0.079221435 0.19111662 -0.27153751 0.02753206 -0.35434055 0.72670007 -0.60405612 -0.33151615 -0.23451914 -0.54474068 0.1263572 0.13574246 -0.36517042 0.30427876 -0.60472906 -0.63823313 0.21005625 1.0274135 -0.43663323 -0.58187813 -0.11569387 0.54101509 -0.34966084 -0.59928751 -0.098063581 0.28773934 0.29288742 0.067689694 0.29111522 -0.33261442 -0.18291909 0.06377466 -0.091685742 -0.035647772 -0.25036776 -0.83466464 -0.39290008 1.2283274 -0.20841447 -0.23083231 -0.13520098 -0.95664126 0.048930254 -0.15555675 0.062082935 -0.28229257 0.67186505 -0.47044036 0.12738159
has -0.21082474 -0.064075425 -0.038492609 0.055825442 0.40252429 -0.11552186 0.23513237 -0.45393503 0.20589735 0.66775966 -0.02041183 -0.46414742 -0.61968982 0.21398182 -0.0121215 0.2443389 -0.17690927 -0.073696584 0.15490811 -0.75980395 -0.53938884 0.26375824 0.81172729 0.62418723 -0.025468653 -0.10124869 0.034871608 -0.24281791 -0.36988139 -0.40055981 -0.26847687 0.083393395 -0.066441484 -0.026544532 -0.074898429 -0.10446121 -0.1460083 0.31897435 -0.2944465 -0.2301981 -0.14814597 -0.27120623 -0.42206204 0.35155678 0.46812898 -0.11956114 0.1606835 0.34457362 0.097692735 0.84451902 0.079686165 0.2149944 0.08545725 -0.32594505 -0.053561639 -0.40370715 0.57160342 -0.59053266 -0.2350146 -0.17119171 -0.47296953 0.14966746 0.31462154 -0.25604624 0.38695377 -0.5929637 -0.39303714 0.30977762 0.90125346 -0.37428156 -0.51431233 0.14700913 0.42556608 -0.21879995 -0.54261994 0.066880219 0.46505663 0.48511446 0.24011143 0.25324136 -0.30514476 -0.18382476 0.13257362 -0.088838488 -0.10319213 -0.10492776 -0.68842149 -0.41423941 1.1628571 -0.18755993 -0.061866906 -0.072134241 -0.82120728 -0.043408073 -0.2814351 -0.034914613 -0.27932316 0.31486201 -0.309255 0.20444818
there 0.93096572 0.62192136 -0.2807003 0.061029036 -1.1747433 0.1360714 -0.098350078 -0.55328441 -0.13164961 0.5789566 -0.52012342 0.32124016 -0.4246453 -0.70378429 0.13912365 0.24632454 -0.19819814 -0.33632168 0.19565485 0.71348625 -0.49303454 -0.48563859 0.094126031 -0.038918301 -0.14978249 -0.36901447 0.1049091 0.0067583467 -0.21451867 -0.011533789 -0.65506691 -0.156073 -0.38737056 0.15150338 0.091055103 0.66518271 -0.55378646 0.1626747 0.4329229 -0.37951395 -0.52157891 -0.20061252 -0.88184094 -0.061008628 0.11408744 0.13149332 -0.40160266 -0.071584076 0.031818438 0.27339941 -0.055963606 -0.067129984 -0.2104302 -0.72264922 -0.056382723 -0.23579873 0.29171345 0.13831443 -0.27921015 0.049667843 0.1115169 0.64843571 0.34514901 0.048158564 0.87762618 -0.37792954 -0.057636231 -0.16002318 0.62423801 0.31394953 -0.59914231 0.25580269 -0.48183486 0.054082721 -0.12344284 -0.62757176 0.70590228 0.55540258 0.44440341 0.35537726 -0.21630958 -0.042720504 0.0014015321 -0.33546987 0.28470162 -0.27158582 -0.64225632 -0.32659802 0.24425226 -0.6789037 -0.65079832 0.22856046 0.18938547 0.57412416 -0.015505342 -0.13047685 0.15701668 0.49260721 0.43588936 0.42660701
tax 0.21578605 0.23750769 -0.16996126 0.12281889 -0.27806985 0.037393119 0.099033058 -0.58459038 0.13412218 0.6431247 -0.076663233 -0.16042686 -0.57724792 -0.18168195 -0.059142042 0.19709043 -0.30806571 -0.27433056 0.22725621 -0.17488547 -0.47495013 0.00036576082 0.59386224 0.43255743 -0.21580704 -0.22839959 0.14685585 -0.26364994 -0.2440311 -0.22431517 -0.27518716 -0.02466364 -0.26197091 0.1194016 -0.0037535697 0.1739963 -0.39648661 0.23727669 -0.012122252 -0.38513654 -0.20315781 -0.3687554 -0.70305192 0.2835173 0.12098535 0.12566216 -0.18967934 0.16575341 -0.034298457 0.62816596 -0.035328642 0.11659092 -0.037267037 -0.43020055 -0.088681482 -0.18640408 0.40316018 -0.33446679 -0.085993581 -0.076242916 -0.17771643 0.3492268 0.39122915 -0.045438163 0.37806523 -0.39731199 -0.23815309 0.24927551 0.7770974 -0.26665935 -0.50175351 0.16097446 -0.0019372621 -0.13929546 -0.31371361 -0.17189215 0.57424563 0.45896852 0.34760913 0.16893244 -0.26556823 0.0074666576 0.24327511 -0.087993756 0.13532168 -0.0027200885 -0.46283627 -0.32093874 0.7255047 -0.08312618 -0.24459283 0.078714207 -0.30060253 -0.094264381 -0.19333382 -0.24822353 -0.29143864 0.20139652 0.0086995969 0.23970114
debt 0.0075836023 0.28083083 -0.15234244 -0.42840901 -0.15808327 -0.056886785 0.83071971 -1.1361716 -0.49959186 0.9999283 -0.47638774 -0.35703859 -0.38851616 -0.68596864 0.2962929 -0.070221424 -0.41413537 0.15303351 0.44284913 -1.2002237 -0.64527047 0.14047289 0.60636419 0.54118407 -0.181834 -0.34328166 0.17343262 0.10199852 -0.034910485 -0.25613308 0.084846377 -0.38592654 -0.4517172 0.27519903 0.60726684 -0.15650551 -0.025933117 0.9033637 0.31079748 -0.19231161 0.51901168 -0.28644922 -0.18490157 0.41202235 0.10313857 0.51166332 -0.54278696 0.58849293 -0.11898854 0.37243438 0.0057059592 -0.082128108 0.016332371 -0.22632131 -0.18304719 -0.49107984 0.31541938 -0.46572697 0.0011265749 -0.029784258 -0.30738467 0.65565234 0.68055254 0.61947721 0.26061559 -0.2887018 -0.22911413 0.023164146 0.60861152 -0.34596768 -1.1306424 0.29708096 0.33799523 0.14671889 -0.24379349 0.09674561 1.1179707 0.33537123 0.64079177 -0.17194875 -0.095761254 0.14649725 0.043471429 0.020780222 -0.4421955 0.6057815 0.12393033 -0.44707334 1.0641984 -0.82864833 -0.2765975 0.46219453 -0.63052893 -0.73911959 -0.62994856 -0.029962705 -0.13213161 0.98754108 -0.073307998 0.059556432
our 0.029509863 0.31244105 -0.13967367 0.080925353 0.056032617 -0.080895439 0.20118035 -0.64298028 0.26866639 0.74167037 -0.0027911777 -0.17225043 -0.51512337 -0.093603745 -0.19777098 0.22611424 -0.45511663 -0.29757848 0.49307886 -0.30517083 -0.5196507 0.11749198 0.86049545 0.49253717 -0.27367333 -0.38606268 0.10053505 -0.25954819 -0.26906565 -0.29433286 -0.27905259 -0.045112498 -0.34557575 0.052460447 0.086512491 -0.022136293 -0.39996117 0.44144619 0.013092776 -0.25568104 -0.057597987 -0.46791208 -0.49229106 0.3774403 0.031083761 0.058931399 -0.24970992 0.071765311 -0.03583508 0.58363533 0.06038025 0.10788886 0.024720365 -0.43062404 -0.0073178252 -0.17014149 0.39172292 -0.51485604 0.049628459 -0.15131019 -0.25793818 0.20254961 0.47197041 0.022871161 0.40936723 -0.28283101 -0.072128452 0.24868704 0.88900709 -0.52743673 -0.52178454 0.13481505 0.035401274 0.060148571 -0.55361044 0.038307287 0.70745522 0.64418375 0.56770164 0.09652067 -0.29137936 0.051681738 0.33002758 -0.21376215 0.10110902 0.13628893 -0.41744974 -0.53521502 0.87901098 0.13867879 -0.22820733 0.20985447 -0.38311678 -0.17744553 -0.20777105 -0.44105235 -0.33317637 0.063352168 0.028582016 0.16925603
card -0.10873841 0.30323553 -0.013777421 -0.49637726 -0.18000603 -0.017518183 0.82668841 -0.7985279 -0.42901525 1.1458549 -0.51787907 -0.76001334 -0.63551742 -0.50745213 0.34149617 0.13242316 -0.4015913 0.10910213 -0.066838756 -1.7648729 -0.91658777 0.19502829 0.57837754 0.9394905 -0.24526998 -0.31953439 0.41082624 -0.13649599 0.090111807 -0.14179923 0.17526208 -0.1589448 -0.17799112 0.32224166 0.25518179 -0.28281125 -0.10440882 0.7727173 0.033463567 -0.11053576 0.37584078 -0.26693541 -0.59237242 0.44267556 0.55331576 0.40963721 -0.2061394 0.76978624 -0.17825724 0.72577703 0.0046128747 0.07923793 -0.090768799 0.15034162 -0.40090254 -0.55642754 0.50316221 -0.49191594 -0.21547778 -0.065101415 -0.76604658 1.0128521 0.19848628 0.44862777 0.14008366 -0.6589129 -0.73052847 0.25229082 0.54327887 -0.35654527 -1.2287664 0.42255032 0.82093781 -0.35992596 -0.13510481 0.36777353 0.97131413 -0.21899387 0.15470207 -0.12568204 0.084031507 0.1535003 0.12444671 0.21828449 -0.71727544 0.48892301 0.26551026 -0.093167603 1.1773889 -0.99452436 -0.12411577 0.2786279 -1.1307173 -0.81591624 -0.86584961 0.30121917 -0.15024681 1.3749003 -0.23993841 -0.22964549
taxes 0.25055355 0.18530481 -0.11525711 -0.075978696 -0.20076041 0.0091185858 0.12298355 -0.68503219 -0.031932265 0.44984385 -0.21569565 -0.13945311 -0.44864246 -0.1016483 0.13112535 0.24331696 -0.07798706 -0.26757437 0.18704841 -0.21803737 -0.31412998 0.00093117135 0.47044632 0.27758273 -0.056001615 0.024297882 -0.029098116 -0.26270372 -0.23246185 -0.2234709 -0.29120278 0.023829732 -0.32839051 0.059072271 6.7060355e-05 0.18071999 -0.11606363 0.10731237 0.086915411 -0.37859038 -0.30405074 -0.14874466 -0.44911772 0.18666634 0.18907844 0.058546625 -0.089941941 0.22101492 0.11403389 0.58521777 -0.082577288 -0.052398827 0.083622038 -0.45641604 0.09195248 -0.13493019 0.45171505 -0.18582484 -0.19076018 -0.24416135 -0.15354228 0.16736419 0.38807634 -0.045865495 0.38387853 -0.32078892 -0.26704094 0.06629549 0.79148674 -0.070537701 -0.42686072 -0.038499705 -0.057319518 -0.14569208 -0.34619188 -0.1918999 0.42597494 0.36876684 0.29252461 0.39974228 -0.22888757 -0.12863645 0.018750068 -0.23086636 0.25325492 -0.06428887 -0.60410446 -0.33234131 0.53610677 -0.3828513 -0.37668505 -0.08143498 -0.28169912 0.19068739 0.0151355 -0.11073848 -0.22576225 0.48879081 -0.14901194 0.26402172
know 1.4104737 0.91153067 -0.079263367 -0.13129519 -1.3990166 0.31388018 -0.015041312 -0.96213901 -0.25593242 -0.0081796758 -0.73499745 0.012636689 -0.62172031 -1.0835341 0.80492353 0.4274846 0.31676361 -0.38252154 0.011995123 0.80506217 -0.42604646 -0.48718509 -0.18324062 -0.055355124 0.14478251 0.055252761 -0.10031109 0.2229415 -0.39248955 -0.020134129 -0.69762254 -0.035487346 -0.20325825 0.24009766 -0.084192343 1.0425186 -0.16747433 -0.21194486 0.70683038 -0.41189983 -0.92910552 0.16271785 -0.96249861 0.083110362 0.1699702 -0.022085479 -0.28348258 0.09412346 0.40177572 0.27123135 -0.25775942 -0.35250896 -0.23811607 -0.95351321 0.092270225 -0.19993143 0.53358942 0.16328332 -0.25881517 0.16879746 0.2254746 0.81157631 0.066569909 -0.015541006 0.79618692 -0.35901693 -0.42054877 -0.71082497 1.1675003 0.41762203 -0.57692885 -0.26962036 -0.58516043 -0.077506848 -0.30036715 -1.2001987 0.17514138 0.46513256 0.28325135 0.54090214 -0.2265777 -0.071706519 -0.33677566 -0.45655566 0.51842409 -0.5097807 -1.0721034 -0.32243904 0.21519348 -0.97257447 -1.2572035 -0.00034173494 0.16262543 1.0902132 0.38096878 -0.029557604 -0.0041889683 0.97450107 0.089140996 0.61149645
more 0.45980969 0.36271986 -0.15943179 0.079746149 -0.46801519 -0.043211561 -0.072154067 -0.47395232 0.19597507 0.30414507 -0.33878797 -0.10915057 -0.58682829 -0.28078729 0.16541976 0.44024804 -0.035102025 -0.36817831 0.048053686 -0.0066060578 -0.41609657 -0.24533534 0.48624632 0.28958225 0.054776516 -0.082590327 -0.028876487 -0.19319184 -0.32419193 -0.29564953 -0.47253558 0.11810753 -0.15820785 0.033785414 -0.12107562 0.29078501 -0.27835801 0.0082424404 0.019339919 -0.3746762 -0.5405314 -0.027945722 -0.67651135 0.17709969 0.27233949 -0.2216413 0.1460997 0.15629326 0.18085292 0.61601937 -0.049665082 -0.034892727 -0.011826177 -0.46696785 0.11762416 -0.090300918 0.52271074 -0.055868801 -0.18866554 -0.30357793 -0.11978269 0.24943985 0.1570542 -0.18384588 0.54924655 -0.36771351 -0.2481364 -0.10183989 0.83669531 -0.081743769 -0.43217811 -0.18427086 -0.17994152 -0.17719933 -0.51596653 -0.30426335 0.39080697 0.47372702 0.30194005 0.47464427 -0.19775593 -0.26688921 0.017225506 -0.34066388 0.3388235 -0.2339125 -0.89563447 -0.35169101 0.5007866 -0.40811178 -0.62864006 -0.050673548 -0.31732374 0.50106841 0.039933946 -0.13084549 -0.057604268 0.67174369 -0.10105337 0.35204664
need 1.0622636 0.74205381 -0.045814093 -0.10503665 -0.97230953 0.160375 0.019707164 -0.88971317 -0.35233042 -0.08420109 -0.5570752 -0.16224948 -0.45742768 -0.85801834 0.67115837 0.23389383 0.20812273 -0.22712879 0.042088471 0.41040984 -0.34512687 -0.42137802 -0.046992954 -0.10551734 0.12593803 0.070712663 -0.087379217 0.1158943 -0.38221481 0.04279089 -0.52800107 -0.11265235 -0.1615864 0.33012766 -0.0042826412 0.67362589 -0.078316405 -0.19759735 0.58131421 -0.44487703 -0.75805783 -0.049186125 -0.79701108 0.15659577 0.077908032 0.014234115 -0.29321143 0.20855626 0.3393251 0.22254999 -0.25656581 -0.19582251 -0.16010569 -0.78820693 0.047431797 -0.17273535 0.54970884 0.041742757 -0.37879267 -0.023996774 0.10576391 0.66659999 0.11226159 -0.020793827 0.548334 -0.30161643 -0.29682258 -0.65262604 1.0119928 0.264431 -0.63666385 -0.26212063 -0.2747533 -0.043380205 -0.36805183 -0.95124394 0.14982413 0.44638494 0.34608984 0.43932945 -0.31403571 0.024025777 -0.27034974 -0.27147534 0.47107348 -0.26759216 -0.94064802 -0.29576865 0.31572184 -0.89587951 -1.0192072 0.056280147 -0.034504879 0.8116051 0.21186069 0.054591548 0.087215982 0.96535504 0.035920486 0.4384712
which 0.17839387 0.28790891 -0.12617722 0.078645036 -0.093540356 -0.075656235 0.23185934 -0.67765385 0.0093825031 0.59326059 -0.12395712 -0.19278029 -0.55528647 -0.27500814 0.048791982 0.1975089 -0.27996042 -0.16622554 0.31747398 -0.26526898 -0.41368356 0.0064059189 0.61477774 0.39585212 -0.19067147 -0.24562019 0.10966647 -0.15904784 -0.23875238 -0.23220243 -0.23323171 -0.09244886 -0.31444973 0.16747718 0.13535137 0.089549184 -0.22554067 0.37912467 0.11322669 -0.3235828 -0.093585543 -0.31855407 -0.47169355 0.32737938 0.065124124 0.19812229 -0.25017777 0.18594028 -0.033953682 0.52895939 0.0010263226 -0.0027604953 0.0071244384 -0.40835807 -0.092465021 -0.24950549 0.36441046 -0.37727153 -0.069898278 -0.099181384 -0.19598681 0.33667728 0.44892457 0.042418573 0.41119352 -0.24282607 -0.1437922 0.14433511 0.79633385 -0.32082915 -0.62062329 0.15262504 0.012846323 6.4157401e-05 -0.33809319 -0.17358848 0.6101684 0.46579474 0.44327447 0.13112895 -0.26141864 0.016983196 0.20185687 -0.13769139 0.081093766 0.071351863 -0.40174109 -0.4583869 0.81520468 -0.13336794 -0.31694034 0.20242158 -0.33521694 -0.12771575 -0.22082765 -0.27767169 -0.24534796 0.33277234 0.0069471737 0.15697309
her 0.059254453 0.28978434 -0.030301826 0.034638323 0.045103058 -0.036339525 0.0063940659 -0.53835934 0.33879271 0.44640368 -0.21103537 -0.28003082 -0.49122381 0.093859226 0.15276863 0.55572623 -0.024974927 -0.25481021 0.096678145 -0.42220119 -0.46580899 0.021196079 0.66389716 0.48099536 0.0013590925 0.020458853 -0.13581869 -0.34864101 -0.33966112 -0.2961143 -0.45208839 0.21144375 -0.18493187 -0.056607507 -0.18798043 0.059411366 -0.15624404 0.088287987 -0.099456973 -0.31596589 -0.37690258 -0.19978532 -0.60212874 0.22588885 0.35280648 -0.23489287 0.14123227 0.14448577 0.20665306 0.83626354 0.049289517 0.11687101 0.19402574 -0.34687412 0.16900063 -0.10759574 0.61576706 -0.33027938 -0.20610124 -0.42531845 -0.31803367 0.082279421 0.13704941 -0.28132093 0.49912643 -0.43398774 -0.32081062 0.14785922 0.96587265 -0.25188625 -0.48321584 -0.13970691 0.091726415 -0.22620189 -0.62027097 -0.024242666 0.43553096 0.38228637 0.25959051 0.52911001 -0.31867579 -0.24738924 0.13635279 -0.35985085 0.22760388 -0.25789326 -0.79169089 -0.36626121 0.70356691 -0.30904505 -0.41309637 -0.077356048 -0.61486155 0.38905701 0.0018514775 -0.16673464 -0.075837649 0.53107291 -0.25309342 0.20707186
month -0.039059762 0.081481934 -0.068727449 0.026401931 0.54220504 -0.24968956 0.41589224 -0.61099046 0.029994315 0.69761503 0.15064894 -0.46978754 -0.65619034 -0.048014756 -0.22506031 0.058822945 -0.5407384 -0.14664942 0.39845794 -0.69294018 -0.305704 0.26455951 0.88855153 0.44012687 -0.24767978 -0.34881109 0.20640242 -0.23308749 -0.22624241 -0.40959641 -0.041290335 -0.13777737 -0.29104099 0.14705937 0.11421309 -0.2334348 -0.22789451 0.46937558 -0.10002422 -0.23889646 0.10302833 -0.39572731 -0.16356294 0.47037688 -0.029396422 0.14271519 -0.18830015 0.26661137 -0.039269228 0.47539431 0.021469459 0.038552355 0.0066092475 -0.29896379 -0.20564206 -0.30482519 0.29267576 -0.63214165 0.010693574 -0.1535019 -0.35674712 0.10138485 0.48636809 0.035550825 0.14520362 -0.17917383 -0.033891048 0.35201085 0.86841249 -0.66308594 -0.62107438 0.27841231 0.33303994 0.091791064 -0.44717044 0.11238497 0.55514848 0.59665859 0.53375322 -0.04831031 -0.30161655 0.068657048 0.34975889 -0.023136625 -0.021761445 0.30382869 -0.3521646 -0.5141021 1.2047085 0.17890538 -0.078473501 0.056632228 -0.57269168 -0.49413055 -0.43835631 -0.29589576 -0.58373427 0.1117916 -0.21843101 0.074277401
job -0.18609104 -0.027048891 0.046791259 -0.00057330244 0.42875862 -0.14442876 0.1401125 -0.50037503 0.37656981 0.37299913 0.068386756 -0.45042828 -0.6952942 0.24350052 0.065068297 0.44652095 -0.11985368 -0.31804895 0.040071953 -0.69369179 -0.40027002 0.26302943 0.76113451 0.65591371 -0.04013361 0.1041624 -0.094871253 -0.40429419 -0.39907008 -0.4608787 -0.27576643 0.24109921 -0.10926146 -0.092838436 -0.32763249 -0.16944471 -0.037899505 0.19670486 -0.38266486 -0.23808217 -0.28770658 -0.075575598 -0.48396951 0.36623046 0.34122193 -0.17133823 0.40153164 0.26241028 0.053021673 1.019318 0.14122108 0.11271857 0.21704547 -0.23713928 0.013547258 -0.2223641 0.54995471 -0.48584813 -0.17205127 -0.41335025 -0.54921228 -0.028968964 0.26114106 -0.24323824 0.41495275 -0.52190262 -0.50443554 0.39168197 0.84028256 -0.36439922 -0.36851788 -0.049582973 0.27065694 -0.35372573 -0.53946012 0.13654573 0.35173774 0.30500314 0.083219714 0.48914355 -0.30036074 -0.26465061 0.13538146 -0.18921499 0.033371773 -0.23847136 -0.78963804 -0.38973489 1.0444064 0.098405108 -0.22782336 -0.16271727 -0.7278254 -6.0265684e-05 -0.11622583 -0.16288735 -0.33377889 0.49767026 -0.46897671 0.082494982
student -0.24796364 0.10459494 -0.18014663 -0.34177941 0.2684702 -0.18535022 1.1507363 -1.2006341 -0.43026176 1.3167973 -0.19260894 -0.50789964 -0.7220518 -0.40262911 -0.071934268 -0.059732549 -0.77179497 -0.009715843 0.78810322 -1.5182394 -0.76295632 0.39020783 0.84094441 0.72581428 -0.47099659 -0.61628681 0.10696822 -0.19316851 -0.10683744 -0.62120509 0.31768131 -0.26214534 -0.55973899 0.096015528 0.74764782 -0.47107592 0.052363653 1.2778747 0.12864864 -0.22693959 0.89057589 -0.37991509 0.16441616 0.51485109 -0.19602308 0.67031699 -0.69743681 0.45942011 -0.30063877 0.45825174 0.13484882 -0.073842444 0.054404706 -0.24617991 -0.3266409 -0.61556202 0.17196067 -0.81190127 0.027709959 -0.26288053 -0.53485876 0.37577403 1.1008976 0.78135318 0.13229851 -0.064287417 -0.10640536 0.34881917 0.78299719 -0.80115396 -1.0703131 0.58141577 0.58045 0.33070874 -0.35505849 0.31085199 1.3442539 0.51701534 0.91527748 -0.34512267 -0.15197206 0.15168929 0.45605564 0.044378448 -0.43419138 0.9899314 0.38158989 -0.72634476 1.4124625 -0.21722145 -0.13565247 0.6283474 -0.75342941 -1.4305152 -0.62533218 -0.2610949 -0.57171291 0.65156037 -0.19952592 -0.19968462
house 0.10114191 0.22372255 0.011823799 -0.056030653 0.23532572 -0.037973274 0.22466311 -0.49228281 0.16868195 0.43668124 -0.0088211372 -0.36056739 -0.51900977 -0.10515034 -0.048322365 0.24520944 -0.25350007 -0.27297357 0.21543287 -0.41557676 -0.27317575 0.18787785 0.56899083 0.31972733 -0.12737204 -0.22441083 0.019667597 -0.2130333 -0.32725093 -0.27190781 -0.28676927 0.02880702 -0.18637249 0.078019254 -0.095719852 -0.042542417 -0.17581066 0.1820886 0.0060368478 -0.23946375 -0.20709006 -0.20544539 -0.35738447 0.30336896 0.14320023 -0.080201954 0.0061198226 0.15687752 0.053285483 0.52180731 0.034076899 0.075868584 -0.0039212015 -0.36636099 0.058000121 -0.16550745 0.40762603 -0.40224734 -0.12832886 -0.20236568 -0.33875027 0.10255405 0.29056886 -0.07956858 0.39405772 -0.30119833 -0.20599252 0.10908242 0.83869123 -0.29223579 -0.504924 0.056262385 0.19933969 -0.07764779 -0.50866067 -0.0023471545 0.32338989 0.48054779 0.40670675 0.26636508 -0.26586494 -0.063347094 0.171683 -0.16439044 0.1450164 -0.048790123 -0.60593063 -0.38129988 0.85846841 -0.075801328 -0.26218188 -0.074877083 -0.54305369 0.042476706 -0.13565043 -0.11815543 -0.33459061 0.33081803 -0.18905313 0.105768
make 0.69997042 0.51658201 -0.0095521398 -0.019755801 -0.49660823 0.069412693 0.026268996 -0.62686986 -0.068374157 0.088266827 -0.29805249 -0.24018188 -0.53847736 -0.43188134 0.36374259 0.33509833 0.074653924 -0.23870052 0.061629053 0.12203106 -0.30115616 -0.17654121 0.16456926 0.10294598 0.030172773 0.059098404 -0.1190076 -0.045311749 -0.36631447 -0.15680705 -0.4634541 0.054072678 -0.19215019 0.14040297 -0.088337407 0.42229465 -0.10379851 -0.071290702 0.26467118 -0.35339874 -0.57033789 -0.058732107 -0.62679297 0.1963235 0.12326871 -0.04835289 -0.069334038 0.13539833 0.22329374 0.43967235 -0.10632157 -0.1048009 -0.082779907 -0.58325881 0.071758099 -0.14039086 0.49371472 -0.11976681 -0.25497627 -0.15850814 -0.044208355 0.37358397 0.094907291 -0.12652718 0.52198011 -0.31125462 -0.27300474 -0.25665686 0.93728697 0.054748327 -0.53740853 -0.14456438 -0.14172237 -0.14647464 -0.43226233 -0.53895843 0.15653591 0.4457221 0.33207309 0.47855344 -0.27089256 -0.10091151 -0.077040516 -0.30118251 0.35942921 -0.27023378 -0.83526093 -0.32872808 0.52104682 -0.49533564 -0.73845345 -0.080472872 -0.21393916 0.59765136 0.16662337 -0.01281246 -0.099846385 0.68282789 -0.049424041 0.29247895
into 0.17172129 0.246728 0.045375817 0.050708551 0.1031831 0.02876595 0.070322447 -0.44276428 0.31067839 0.30963892 -0.046861168 -0.42017034 -0.57498151 -0.11674082 0.12889408 0.38509282 -0.063638039 -0.36553115 0.044379357 -0.30667871 -0.40881282 0.066398501 0.54413784 0.48943639 -0.027259924 -0.029239513 -0.079753399 -0.27085391 -0.45234451 -0.21897559 -0.35539076 0.17598009 -0.12060351 -0.010177572 -0.12280139 0.12934652 -0.16832082 0.049069379 0.036324117 -0.3819021 -0.38822034 -0.10742407 -0.62173921 0.33184862 0.2908023 -0.25314987 0.096675716 0.18109636 0.17413422 0.86611408 0.06065511 0.064583771 0.066924304 -0.36617744 0.086744167 -0.18802947 0.49291185 -0.42402428 -0.2337206 -0.27989751 -0.34247759 0.16305947 0.19120967 -0.23862216 0.45653412 -0.4407492 -0.3610945 0.083787173 1.077016 -0.14567372 -0.49304023 -0.1407726 0.10208155 -0.19644274 -0.6232186 -0.17444493 0.22891311 0.44584864 0.31385812 0.35586664 -0.24449144 -0.13317943 0.08345481 -0.24344029 0.28616211 -0.20707542 -0.93876457 -0.30465961 0.75898176 -0.20945407 -0.49543843 -0.054610163 -0.6513381 0.33049607 -0.048502356 -0.18291776 -0.15944436 0.52425158 -0.29218131 0.18619268
its 0.4335182 0.30060875 -0.10700744 -0.017712014 -0.31066215 0.0063016382 0.034693044 -0.51839668 0.1512655 0.36892486 -0.20993151 -0.20137866 -0.5489397 -0.25197458 0.14300266 0.3457638 -0.078388967 -0.31198803 0.12060907 -0.063841246 -0.42959231 -0.042564601 0.47995287 0.30320737 -0.041904807 -0.025883527 -0.04576949 -0.1144805 -0.33977678 -0.28033668 -0.41175067 0.086499311 -0.20180719 -0.011029902 -0.10476766 0.24259387 -0.21868236 0.082096696 0.0200794 -0.29154548 -0.42380264 -0.057543565 -0.64930212 0.20805006 0.27681252 -0.13859601 0.083884187 0.20009701 0.13607174 0.62573779 -0.023193249 -0.0081025558 -0.0033098438 -0.4839969 0.03773063 -0.19273074 0.45705622 -0.19870467 -0.12667781 -0.11704435 -0.13898502 0.24721974 0.19725204 -0.15777913 0.51073551 -0.42919713 -0.29044768 0.0095634563 0.91420877 -0.076757774 -0.41237366 -0.12624556 -0.098750614 -0.13458405 -0.4286806 -0.28512967 0.35646531 0.47081432 0.31286785 0.44939601 -0.20976934 -0.1904431 0.014807972 -0.30399811 0.20710835 -0.22067253 -0.78191608 -0.3522737 0.64303553 -0.32305253 -0.50794035 -0.11572286 -0.29841003 0.33766505 0.0090168873 -0.1506643 -0.18076746 0.49154586 -0.14325289 0.31391749
